<?xml version="1.0" encoding="UTF-8" standalone="yes"?>
<PMML xmlns="http://www.dmg.org/PMML-4_4" xmlns:data="http://jpmml.org/jpmml-model/InlineTable" version="4.4">
	<Header>
		<Application name="JPMML-SkLearn library" version="1.7.6"/>
		<Timestamp>2022-05-25T15:19:08Z</Timestamp>
	</Header>
	<DataDictionary>
		<DataField name="y" optype="categorical" dataType="integer">
			<Value value="0"/>
			<Value value="1"/>
			<Value value="2"/>
		</DataField>
		<DataField name="h1" optype="continuous" dataType="double"/>
		<DataField name="h2" optype="continuous" dataType="double"/>
		<DataField name="h3" optype="continuous" dataType="double"/>
		<DataField name="h4" optype="continuous" dataType="double"/>
		<DataField name="h5" optype="continuous" dataType="double"/>
		<DataField name="h6" optype="continuous" dataType="double"/>
		<DataField name="h7" optype="continuous" dataType="double"/>
		<DataField name="h8" optype="continuous" dataType="double"/>
		<DataField name="h9" optype="continuous" dataType="double"/>
		<DataField name="h10" optype="continuous" dataType="double"/>
		<DataField name="h11" optype="continuous" dataType="double"/>
		<DataField name="h12" optype="continuous" dataType="double"/>
		<DataField name="h13" optype="continuous" dataType="double"/>
		<DataField name="h14" optype="continuous" dataType="double"/>
		<DataField name="h15" optype="continuous" dataType="double"/>
		<DataField name="h16" optype="continuous" dataType="double"/>
		<DataField name="h17" optype="continuous" dataType="double"/>
		<DataField name="h18" optype="continuous" dataType="double"/>
		<DataField name="h19" optype="continuous" dataType="double"/>
		<DataField name="h20" optype="continuous" dataType="double"/>
		<DataField name="h21" optype="continuous" dataType="double"/>
		<DataField name="h22" optype="continuous" dataType="double"/>
		<DataField name="h23" optype="continuous" dataType="double"/>
	</DataDictionary>
	<NeuralNetwork functionName="classification" algorithmName="sklearn.neural_network._multilayer_perceptron.MLPClassifier" activationFunction="rectifier">
		<MiningSchema>
			<MiningField name="y" usageType="target"/>
			<MiningField name="h1"/>
			<MiningField name="h2"/>
			<MiningField name="h3"/>
			<MiningField name="h4"/>
			<MiningField name="h5"/>
			<MiningField name="h6"/>
			<MiningField name="h7"/>
			<MiningField name="h8"/>
			<MiningField name="h9"/>
			<MiningField name="h10"/>
			<MiningField name="h11"/>
			<MiningField name="h12"/>
			<MiningField name="h13"/>
			<MiningField name="h14"/>
			<MiningField name="h15"/>
			<MiningField name="h16"/>
			<MiningField name="h17"/>
			<MiningField name="h18"/>
			<MiningField name="h19"/>
			<MiningField name="h20"/>
			<MiningField name="h21"/>
			<MiningField name="h22"/>
			<MiningField name="h23"/>
		</MiningSchema>
		<Output>
			<OutputField name="probability(0)" optype="continuous" dataType="double" feature="probability" value="0"/>
			<OutputField name="probability(1)" optype="continuous" dataType="double" feature="probability" value="1"/>
			<OutputField name="probability(2)" optype="continuous" dataType="double" feature="probability" value="2"/>
		</Output>
		<NeuralInputs>
			<NeuralInput id="input/1">
				<DerivedField optype="continuous" dataType="double">
					<FieldRef field="h1"/>
				</DerivedField>
			</NeuralInput>
			<NeuralInput id="input/2">
				<DerivedField optype="continuous" dataType="double">
					<FieldRef field="h2"/>
				</DerivedField>
			</NeuralInput>
			<NeuralInput id="input/3">
				<DerivedField optype="continuous" dataType="double">
					<FieldRef field="h3"/>
				</DerivedField>
			</NeuralInput>
			<NeuralInput id="input/4">
				<DerivedField optype="continuous" dataType="double">
					<FieldRef field="h4"/>
				</DerivedField>
			</NeuralInput>
			<NeuralInput id="input/5">
				<DerivedField optype="continuous" dataType="double">
					<FieldRef field="h5"/>
				</DerivedField>
			</NeuralInput>
			<NeuralInput id="input/6">
				<DerivedField optype="continuous" dataType="double">
					<FieldRef field="h6"/>
				</DerivedField>
			</NeuralInput>
			<NeuralInput id="input/7">
				<DerivedField optype="continuous" dataType="double">
					<FieldRef field="h7"/>
				</DerivedField>
			</NeuralInput>
			<NeuralInput id="input/8">
				<DerivedField optype="continuous" dataType="double">
					<FieldRef field="h8"/>
				</DerivedField>
			</NeuralInput>
			<NeuralInput id="input/9">
				<DerivedField optype="continuous" dataType="double">
					<FieldRef field="h9"/>
				</DerivedField>
			</NeuralInput>
			<NeuralInput id="input/10">
				<DerivedField optype="continuous" dataType="double">
					<FieldRef field="h10"/>
				</DerivedField>
			</NeuralInput>
			<NeuralInput id="input/11">
				<DerivedField optype="continuous" dataType="double">
					<FieldRef field="h11"/>
				</DerivedField>
			</NeuralInput>
			<NeuralInput id="input/12">
				<DerivedField optype="continuous" dataType="double">
					<FieldRef field="h12"/>
				</DerivedField>
			</NeuralInput>
			<NeuralInput id="input/13">
				<DerivedField optype="continuous" dataType="double">
					<FieldRef field="h13"/>
				</DerivedField>
			</NeuralInput>
			<NeuralInput id="input/14">
				<DerivedField optype="continuous" dataType="double">
					<FieldRef field="h14"/>
				</DerivedField>
			</NeuralInput>
			<NeuralInput id="input/15">
				<DerivedField optype="continuous" dataType="double">
					<FieldRef field="h15"/>
				</DerivedField>
			</NeuralInput>
			<NeuralInput id="input/16">
				<DerivedField optype="continuous" dataType="double">
					<FieldRef field="h16"/>
				</DerivedField>
			</NeuralInput>
			<NeuralInput id="input/17">
				<DerivedField optype="continuous" dataType="double">
					<FieldRef field="h17"/>
				</DerivedField>
			</NeuralInput>
			<NeuralInput id="input/18">
				<DerivedField optype="continuous" dataType="double">
					<FieldRef field="h18"/>
				</DerivedField>
			</NeuralInput>
			<NeuralInput id="input/19">
				<DerivedField optype="continuous" dataType="double">
					<FieldRef field="h19"/>
				</DerivedField>
			</NeuralInput>
			<NeuralInput id="input/20">
				<DerivedField optype="continuous" dataType="double">
					<FieldRef field="h20"/>
				</DerivedField>
			</NeuralInput>
			<NeuralInput id="input/21">
				<DerivedField optype="continuous" dataType="double">
					<FieldRef field="h21"/>
				</DerivedField>
			</NeuralInput>
			<NeuralInput id="input/22">
				<DerivedField optype="continuous" dataType="double">
					<FieldRef field="h22"/>
				</DerivedField>
			</NeuralInput>
			<NeuralInput id="input/23">
				<DerivedField optype="continuous" dataType="double">
					<FieldRef field="h23"/>
				</DerivedField>
			</NeuralInput>
		</NeuralInputs>
		<NeuralLayer>
			<Neuron id="1/1" bias="0.0565110873811365">
				<Con from="input/1" weight="-0.20721623229501485"/>
				<Con from="input/2" weight="-0.04850146991371029"/>
				<Con from="input/3" weight="-0.16603746442723713"/>
				<Con from="input/4" weight="0.20936612556773232"/>
				<Con from="input/5" weight="0.3173254286758125"/>
				<Con from="input/6" weight="0.4457058244366442"/>
				<Con from="input/7" weight="0.1979312567144537"/>
				<Con from="input/8" weight="0.132217165296614"/>
				<Con from="input/9" weight="0.1110020593777041"/>
				<Con from="input/10" weight="-0.3156604439245293"/>
				<Con from="input/11" weight="0.0494963220121052"/>
				<Con from="input/12" weight="-0.0551946668167584"/>
				<Con from="input/13" weight="0.11019768125928786"/>
				<Con from="input/14" weight="-0.17376773660091993"/>
				<Con from="input/15" weight="-0.005622893191456925"/>
				<Con from="input/16" weight="0.0890937590042445"/>
				<Con from="input/17" weight="0.11627038182527494"/>
				<Con from="input/18" weight="-0.007383775351306616"/>
				<Con from="input/19" weight="0.24654548207824029"/>
				<Con from="input/20" weight="-0.08595635852437124"/>
				<Con from="input/21" weight="0.12138739566993872"/>
				<Con from="input/22" weight="-0.18217052922415566"/>
				<Con from="input/23" weight="-0.35328210112501374"/>
			</Neuron>
			<Neuron id="1/2" bias="0.11674623285859678">
				<Con from="input/1" weight="0.2440768055403242"/>
				<Con from="input/2" weight="0.07901925077601643"/>
				<Con from="input/3" weight="-0.18237155075017822"/>
				<Con from="input/4" weight="0.26952230060031773"/>
				<Con from="input/5" weight="-0.002757955442700733"/>
				<Con from="input/6" weight="0.15340099802145052"/>
				<Con from="input/7" weight="0.1773453457413015"/>
				<Con from="input/8" weight="-0.026395938449351317"/>
				<Con from="input/9" weight="-0.06819130186771855"/>
				<Con from="input/10" weight="0.2255220803143152"/>
				<Con from="input/11" weight="-0.10220910659887536"/>
				<Con from="input/12" weight="0.10188225840209021"/>
				<Con from="input/13" weight="0.2867251281294632"/>
				<Con from="input/14" weight="0.25942118966006295"/>
				<Con from="input/15" weight="0.13383336114001776"/>
				<Con from="input/16" weight="0.12116769905822186"/>
				<Con from="input/17" weight="-0.02119243748921963"/>
				<Con from="input/18" weight="0.1415066251219319"/>
				<Con from="input/19" weight="0.08208892593455613"/>
				<Con from="input/20" weight="-0.01940458316139265"/>
				<Con from="input/21" weight="-0.13249086492053552"/>
				<Con from="input/22" weight="-0.4690982296268394"/>
				<Con from="input/23" weight="-0.2867798524257465"/>
			</Neuron>
			<Neuron id="1/3" bias="0.05610681741724926">
				<Con from="input/1" weight="0.06637558486248693"/>
				<Con from="input/2" weight="0.14386411613634062"/>
				<Con from="input/3" weight="0.18153331114194482"/>
				<Con from="input/4" weight="0.007866931857407538"/>
				<Con from="input/5" weight="0.10096164253681654"/>
				<Con from="input/6" weight="0.24062331927638816"/>
				<Con from="input/7" weight="-0.09574236311632203"/>
				<Con from="input/8" weight="-0.2203052423721949"/>
				<Con from="input/9" weight="0.13356613654135388"/>
				<Con from="input/10" weight="-0.06754338186589202"/>
				<Con from="input/11" weight="0.15443833083535227"/>
				<Con from="input/12" weight="-0.08793544687664348"/>
				<Con from="input/13" weight="-0.23814969504751646"/>
				<Con from="input/14" weight="0.006027360893257468"/>
				<Con from="input/15" weight="0.06589014209518775"/>
				<Con from="input/16" weight="-0.14192453361931665"/>
				<Con from="input/17" weight="0.10649739128835818"/>
				<Con from="input/18" weight="0.17079520426773748"/>
				<Con from="input/19" weight="0.07035036589315703"/>
				<Con from="input/20" weight="0.03733583692954222"/>
				<Con from="input/21" weight="0.2726758653265182"/>
				<Con from="input/22" weight="0.005641750836620214"/>
				<Con from="input/23" weight="0.36488470736665407"/>
			</Neuron>
			<Neuron id="1/4" bias="0.1507374484913283">
				<Con from="input/1" weight="-0.17905008149738208"/>
				<Con from="input/2" weight="-0.3901284107191813"/>
				<Con from="input/3" weight="0.09245997257894803"/>
				<Con from="input/4" weight="0.3599879899210217"/>
				<Con from="input/5" weight="0.13214366842119563"/>
				<Con from="input/6" weight="0.2452729759361927"/>
				<Con from="input/7" weight="0.09580365415042356"/>
				<Con from="input/8" weight="0.0993212187445707"/>
				<Con from="input/9" weight="-0.094469123738331"/>
				<Con from="input/10" weight="-0.16946187734248"/>
				<Con from="input/11" weight="0.027529294517219405"/>
				<Con from="input/12" weight="-0.2049162747996442"/>
				<Con from="input/13" weight="0.16405431479615606"/>
				<Con from="input/14" weight="-0.10302477194062759"/>
				<Con from="input/15" weight="0.2085445500829088"/>
				<Con from="input/16" weight="0.0705006514778991"/>
				<Con from="input/17" weight="0.22922208546057138"/>
				<Con from="input/18" weight="0.042711643852299565"/>
				<Con from="input/19" weight="0.014742847584494298"/>
				<Con from="input/20" weight="0.1557339136600774"/>
				<Con from="input/21" weight="-0.10646686363401506"/>
				<Con from="input/22" weight="-0.020484799710263655"/>
				<Con from="input/23" weight="-0.28822410084912725"/>
			</Neuron>
			<Neuron id="1/5" bias="0.1823922457318549">
				<Con from="input/1" weight="-0.22540728709885624"/>
				<Con from="input/2" weight="-0.27549410769187904"/>
				<Con from="input/3" weight="0.05521507923962408"/>
				<Con from="input/4" weight="0.3495342453307062"/>
				<Con from="input/5" weight="0.22388934667701926"/>
				<Con from="input/6" weight="0.06120147754303709"/>
				<Con from="input/7" weight="0.0807023115840745"/>
				<Con from="input/8" weight="-0.10129779058100671"/>
				<Con from="input/9" weight="0.008256053903567451"/>
				<Con from="input/10" weight="-0.022329426547155577"/>
				<Con from="input/11" weight="-0.20564921239681094"/>
				<Con from="input/12" weight="-0.23800278606029862"/>
				<Con from="input/13" weight="0.07893100249097157"/>
				<Con from="input/14" weight="-0.08257081124988093"/>
				<Con from="input/15" weight="0.08460342511836724"/>
				<Con from="input/16" weight="0.07861235774666663"/>
				<Con from="input/17" weight="0.1374736684054425"/>
				<Con from="input/18" weight="-0.06823102985715582"/>
				<Con from="input/19" weight="-0.07473639056233891"/>
				<Con from="input/20" weight="0.19479917488571477"/>
				<Con from="input/21" weight="0.2870784840888605"/>
				<Con from="input/22" weight="0.10453347309449681"/>
				<Con from="input/23" weight="-0.047756966024339126"/>
			</Neuron>
			<Neuron id="1/6" bias="0.1536038908264571">
				<Con from="input/1" weight="0.33079783368430954"/>
				<Con from="input/2" weight="0.13759161243195112"/>
				<Con from="input/3" weight="0.11302004873793081"/>
				<Con from="input/4" weight="0.0837900681905083"/>
				<Con from="input/5" weight="-0.22428988150786242"/>
				<Con from="input/6" weight="0.03784098809273036"/>
				<Con from="input/7" weight="-0.18556232172031362"/>
				<Con from="input/8" weight="0.09194668341236219"/>
				<Con from="input/9" weight="-0.05922927395389172"/>
				<Con from="input/10" weight="0.3042781276948398"/>
				<Con from="input/11" weight="0.00863910156124415"/>
				<Con from="input/12" weight="0.13828878059361993"/>
				<Con from="input/13" weight="0.020520998861212048"/>
				<Con from="input/14" weight="-0.0028194415374099297"/>
				<Con from="input/15" weight="0.27193975704694084"/>
				<Con from="input/16" weight="0.0019326991389453944"/>
				<Con from="input/17" weight="-0.06985897025924771"/>
				<Con from="input/18" weight="0.07545749497409047"/>
				<Con from="input/19" weight="-0.11006009812154206"/>
				<Con from="input/20" weight="0.06914521428988368"/>
				<Con from="input/21" weight="-0.1180251129271374"/>
				<Con from="input/22" weight="-0.3553839636921777"/>
				<Con from="input/23" weight="-0.005692286502301"/>
			</Neuron>
			<Neuron id="1/7" bias="0.17669089938732124">
				<Con from="input/1" weight="-0.011006057596674182"/>
				<Con from="input/2" weight="-0.006700821821819924"/>
				<Con from="input/3" weight="0.02562799987832133"/>
				<Con from="input/4" weight="-0.08325679453958056"/>
				<Con from="input/5" weight="-0.034006825447217726"/>
				<Con from="input/6" weight="-0.008436341399816147"/>
				<Con from="input/7" weight="-0.0961944137449561"/>
				<Con from="input/8" weight="0.042157453681368244"/>
				<Con from="input/9" weight="-0.08993062181120946"/>
				<Con from="input/10" weight="-0.017118394815357298"/>
				<Con from="input/11" weight="-0.10317846329811273"/>
				<Con from="input/12" weight="0.10491852821760865"/>
				<Con from="input/13" weight="-0.0101845564271766"/>
				<Con from="input/14" weight="-0.011892536240549685"/>
				<Con from="input/15" weight="-0.05024536983727039"/>
				<Con from="input/16" weight="-0.0726106361184622"/>
				<Con from="input/17" weight="-0.014912628073579279"/>
				<Con from="input/18" weight="-0.014806929577464061"/>
				<Con from="input/19" weight="0.08535141915437264"/>
				<Con from="input/20" weight="-0.11499815812819458"/>
				<Con from="input/21" weight="-0.021896107911717165"/>
				<Con from="input/22" weight="-0.041371267025051645"/>
				<Con from="input/23" weight="-0.04030309748018639"/>
			</Neuron>
			<Neuron id="1/8" bias="-0.15824941451174257">
				<Con from="input/1" weight="0.014985838216910035"/>
				<Con from="input/2" weight="8.295134755813837E-4"/>
				<Con from="input/3" weight="0.0022845457317388165"/>
				<Con from="input/4" weight="-0.0171373563374915"/>
				<Con from="input/5" weight="0.004252355813887548"/>
				<Con from="input/6" weight="6.932530838413066E-4"/>
				<Con from="input/7" weight="0.004868028676332949"/>
				<Con from="input/8" weight="-1.4408643753936014E-5"/>
				<Con from="input/9" weight="-0.01566121486772068"/>
				<Con from="input/10" weight="-4.1100262202717214E-8"/>
				<Con from="input/11" weight="-0.013088400630972842"/>
				<Con from="input/12" weight="-6.882977767835694E-4"/>
				<Con from="input/13" weight="-3.793646091637395E-8"/>
				<Con from="input/14" weight="-0.002703499231591308"/>
				<Con from="input/15" weight="-2.2042572552974195E-11"/>
				<Con from="input/16" weight="-0.007510803262217463"/>
				<Con from="input/17" weight="3.28889267210472E-9"/>
				<Con from="input/18" weight="1.2394089181366806E-4"/>
				<Con from="input/19" weight="6.333296337399512E-5"/>
				<Con from="input/20" weight="-5.047537827654451E-4"/>
				<Con from="input/21" weight="-2.2222664175794497E-5"/>
				<Con from="input/22" weight="9.819578361121341E-5"/>
				<Con from="input/23" weight="-8.558826699258919E-4"/>
			</Neuron>
			<Neuron id="1/9" bias="0.08713933735400863">
				<Con from="input/1" weight="-0.32908570599849596"/>
				<Con from="input/2" weight="-0.16805391858260307"/>
				<Con from="input/3" weight="-0.009169306254401844"/>
				<Con from="input/4" weight="0.39695842414530935"/>
				<Con from="input/5" weight="0.361542126801113"/>
				<Con from="input/6" weight="0.3435975244203802"/>
				<Con from="input/7" weight="-0.08688527104571928"/>
				<Con from="input/8" weight="-0.039078263905406016"/>
				<Con from="input/9" weight="-0.19734458065902138"/>
				<Con from="input/10" weight="-0.09716732948559635"/>
				<Con from="input/11" weight="0.18115035624567122"/>
				<Con from="input/12" weight="0.0307629370673572"/>
				<Con from="input/13" weight="0.0549068096786566"/>
				<Con from="input/14" weight="0.0605291636504329"/>
				<Con from="input/15" weight="-0.026575381316490364"/>
				<Con from="input/16" weight="0.09201319702961726"/>
				<Con from="input/17" weight="-0.09984996815157994"/>
				<Con from="input/18" weight="0.30043770052858776"/>
				<Con from="input/19" weight="0.09619491822420567"/>
				<Con from="input/20" weight="0.13427248509286835"/>
				<Con from="input/21" weight="-0.017491499395777068"/>
				<Con from="input/22" weight="-0.051660916222846034"/>
				<Con from="input/23" weight="-0.44929076329125206"/>
			</Neuron>
			<Neuron id="1/10" bias="0.19069349523251242">
				<Con from="input/1" weight="0.3076161705305171"/>
				<Con from="input/2" weight="0.1300060322747701"/>
				<Con from="input/3" weight="0.05063509369385492"/>
				<Con from="input/4" weight="-0.08930192176384462"/>
				<Con from="input/5" weight="-0.27745074205013986"/>
				<Con from="input/6" weight="-0.29498186628812273"/>
				<Con from="input/7" weight="0.10089271259930639"/>
				<Con from="input/8" weight="-0.1367868845228113"/>
				<Con from="input/9" weight="0.014514840749265557"/>
				<Con from="input/10" weight="0.2570689186568073"/>
				<Con from="input/11" weight="0.306765427408031"/>
				<Con from="input/12" weight="0.16921815351333036"/>
				<Con from="input/13" weight="-0.06650552224224479"/>
				<Con from="input/14" weight="0.04266505855746329"/>
				<Con from="input/15" weight="-0.0515903345211606"/>
				<Con from="input/16" weight="0.08376509781838468"/>
				<Con from="input/17" weight="-0.2060181664697744"/>
				<Con from="input/18" weight="0.09376468351617066"/>
				<Con from="input/19" weight="-0.03751500885773498"/>
				<Con from="input/20" weight="-0.1893117873153028"/>
				<Con from="input/21" weight="-0.0016525560001771854"/>
				<Con from="input/22" weight="0.21523375087980817"/>
				<Con from="input/23" weight="0.39839257441458487"/>
			</Neuron>
			<Neuron id="1/11" bias="0.2289310219933434">
				<Con from="input/1" weight="0.015736991130787643"/>
				<Con from="input/2" weight="-0.35789975102500704"/>
				<Con from="input/3" weight="0.04139340448172292"/>
				<Con from="input/4" weight="0.3733398960146933"/>
				<Con from="input/5" weight="0.04461991273404795"/>
				<Con from="input/6" weight="0.23757466068466668"/>
				<Con from="input/7" weight="-0.11600163709794782"/>
				<Con from="input/8" weight="-0.010904897247905"/>
				<Con from="input/9" weight="0.15545034346941858"/>
				<Con from="input/10" weight="-0.13592907900934048"/>
				<Con from="input/11" weight="0.1389999208438034"/>
				<Con from="input/12" weight="0.012980730170493646"/>
				<Con from="input/13" weight="-0.016906982891615133"/>
				<Con from="input/14" weight="0.00380692986415735"/>
				<Con from="input/15" weight="0.0749484746588872"/>
				<Con from="input/16" weight="-0.07387042632521469"/>
				<Con from="input/17" weight="0.14864555973628862"/>
				<Con from="input/18" weight="-0.11714420378528946"/>
				<Con from="input/19" weight="0.21890642500452243"/>
				<Con from="input/20" weight="-0.08556676409978875"/>
				<Con from="input/21" weight="-0.08945740905574422"/>
				<Con from="input/22" weight="-0.30033899749685833"/>
				<Con from="input/23" weight="-0.049482003874969475"/>
			</Neuron>
			<Neuron id="1/12" bias="-0.08750470184691152">
				<Con from="input/1" weight="-0.303579376841064"/>
				<Con from="input/2" weight="-0.028525778210486106"/>
				<Con from="input/3" weight="-0.18532278470171798"/>
				<Con from="input/4" weight="0.27120407106214606"/>
				<Con from="input/5" weight="0.19154003332327765"/>
				<Con from="input/6" weight="0.35775656813838463"/>
				<Con from="input/7" weight="0.26200019256515805"/>
				<Con from="input/8" weight="-0.19634913854746072"/>
				<Con from="input/9" weight="0.12373380782016097"/>
				<Con from="input/10" weight="-0.13285283814676155"/>
				<Con from="input/11" weight="0.05973552304244517"/>
				<Con from="input/12" weight="-0.045575069563050914"/>
				<Con from="input/13" weight="0.2570628280232077"/>
				<Con from="input/14" weight="0.045692957412023706"/>
				<Con from="input/15" weight="0.027814219924506965"/>
				<Con from="input/16" weight="0.10185970670462878"/>
				<Con from="input/17" weight="0.08500471730970557"/>
				<Con from="input/18" weight="0.08484508538494694"/>
				<Con from="input/19" weight="0.09846424220272353"/>
				<Con from="input/20" weight="0.14083695381585448"/>
				<Con from="input/21" weight="-0.11189404242667973"/>
				<Con from="input/22" weight="-0.23985832846660352"/>
				<Con from="input/23" weight="-0.16590107006227237"/>
			</Neuron>
			<Neuron id="1/13" bias="-0.09981376992605545">
				<Con from="input/1" weight="0.026341372139749523"/>
				<Con from="input/2" weight="0.0053446818786141576"/>
				<Con from="input/3" weight="-0.02100338323508023"/>
				<Con from="input/4" weight="-0.02486687831565506"/>
				<Con from="input/5" weight="0.0010790698292132803"/>
				<Con from="input/6" weight="3.491487715546958E-9"/>
				<Con from="input/7" weight="-0.01448218702189648"/>
				<Con from="input/8" weight="-0.0031355798415955622"/>
				<Con from="input/9" weight="-0.0034144548436173"/>
				<Con from="input/10" weight="-1.57982192209798E-8"/>
				<Con from="input/11" weight="7.772826379970697E-5"/>
				<Con from="input/12" weight="0.0026352372150866125"/>
				<Con from="input/13" weight="-0.018712490055441545"/>
				<Con from="input/14" weight="1.007306837963944E-9"/>
				<Con from="input/15" weight="3.475087371383297E-5"/>
				<Con from="input/16" weight="1.7732228463751795E-9"/>
				<Con from="input/17" weight="-0.005280242680568"/>
				<Con from="input/18" weight="0.0017362183694901035"/>
				<Con from="input/19" weight="-3.0515481961377354E-6"/>
				<Con from="input/20" weight="0.0053229041155524355"/>
				<Con from="input/21" weight="-0.014130320674522938"/>
				<Con from="input/22" weight="-2.0278397614729968E-4"/>
				<Con from="input/23" weight="2.9322566818372204E-4"/>
			</Neuron>
			<Neuron id="1/14" bias="0.22497596881180137">
				<Con from="input/1" weight="-0.08900136570438866"/>
				<Con from="input/2" weight="-0.141152781647458"/>
				<Con from="input/3" weight="0.33962212925907304"/>
				<Con from="input/4" weight="-0.18505642352327836"/>
				<Con from="input/5" weight="0.2250995005162695"/>
				<Con from="input/6" weight="0.01960112538840729"/>
				<Con from="input/7" weight="-0.07455478965992082"/>
				<Con from="input/8" weight="0.14899346797579108"/>
				<Con from="input/9" weight="-0.02530517447709087"/>
				<Con from="input/10" weight="-0.19629156950359086"/>
				<Con from="input/11" weight="0.023077778539632537"/>
				<Con from="input/12" weight="0.061059884074983764"/>
				<Con from="input/13" weight="-0.07688380644708047"/>
				<Con from="input/14" weight="-0.16081570416615487"/>
				<Con from="input/15" weight="-0.13576686128573434"/>
				<Con from="input/16" weight="-0.01736908394732973"/>
				<Con from="input/17" weight="0.10846618555641468"/>
				<Con from="input/18" weight="-0.0019430661601372023"/>
				<Con from="input/19" weight="-0.08350885436340999"/>
				<Con from="input/20" weight="-0.0533561215635876"/>
				<Con from="input/21" weight="0.29065859854576487"/>
				<Con from="input/22" weight="0.4338294024902133"/>
				<Con from="input/23" weight="0.2618218374888301"/>
			</Neuron>
			<Neuron id="1/15" bias="0.0692551633222656">
				<Con from="input/1" weight="-0.013248238292394434"/>
				<Con from="input/2" weight="0.023422411408345053"/>
				<Con from="input/3" weight="-0.008950332640828042"/>
				<Con from="input/4" weight="-0.012335225869308422"/>
				<Con from="input/5" weight="-0.013946282156175369"/>
				<Con from="input/6" weight="-0.03236180812196831"/>
				<Con from="input/7" weight="-0.014014082918406145"/>
				<Con from="input/8" weight="-0.014114178246786927"/>
				<Con from="input/9" weight="-0.013739910592390272"/>
				<Con from="input/10" weight="-0.014573973017483985"/>
				<Con from="input/11" weight="-0.01394623381288802"/>
				<Con from="input/12" weight="-0.0408681121473219"/>
				<Con from="input/13" weight="-0.02562481919303363"/>
				<Con from="input/14" weight="-0.0133444559837061"/>
				<Con from="input/15" weight="-0.024646101736589324"/>
				<Con from="input/16" weight="-0.03471882322342559"/>
				<Con from="input/17" weight="-0.01518455512129171"/>
				<Con from="input/18" weight="-0.018432914974643257"/>
				<Con from="input/19" weight="-0.019648296012324495"/>
				<Con from="input/20" weight="-0.012736616474844923"/>
				<Con from="input/21" weight="-0.04523466579233026"/>
				<Con from="input/22" weight="-0.01344930885145995"/>
				<Con from="input/23" weight="-0.017879383483355445"/>
			</Neuron>
			<Neuron id="1/16" bias="0.1850236266627504">
				<Con from="input/1" weight="-0.2972681459699292"/>
				<Con from="input/2" weight="0.044848816094881"/>
				<Con from="input/3" weight="0.12860291928116843"/>
				<Con from="input/4" weight="-0.051412218564150444"/>
				<Con from="input/5" weight="0.23712442387184415"/>
				<Con from="input/6" weight="0.3165988419929798"/>
				<Con from="input/7" weight="-0.156067562365219"/>
				<Con from="input/8" weight="-0.13729972844526533"/>
				<Con from="input/9" weight="0.06603831821615769"/>
				<Con from="input/10" weight="-0.07436625752492501"/>
				<Con from="input/11" weight="0.12492388203884965"/>
				<Con from="input/12" weight="-0.10887264673183013"/>
				<Con from="input/13" weight="0.10486559651991638"/>
				<Con from="input/14" weight="0.027701464326587204"/>
				<Con from="input/15" weight="-0.16645869569394917"/>
				<Con from="input/16" weight="0.02232744516135477"/>
				<Con from="input/17" weight="0.18996561130158204"/>
				<Con from="input/18" weight="-0.04195037500883072"/>
				<Con from="input/19" weight="0.07610820440356415"/>
				<Con from="input/20" weight="0.27934136889955524"/>
				<Con from="input/21" weight="0.2074338398666013"/>
				<Con from="input/22" weight="-0.05819763150206618"/>
				<Con from="input/23" weight="8.352592999923799E-4"/>
			</Neuron>
			<Neuron id="1/17" bias="-0.12507148719605096">
				<Con from="input/1" weight="0.2742002596379228"/>
				<Con from="input/2" weight="-0.1897274472136524"/>
				<Con from="input/3" weight="-0.12241169865273017"/>
				<Con from="input/4" weight="0.19865041750749707"/>
				<Con from="input/5" weight="0.030948537638954065"/>
				<Con from="input/6" weight="0.2175967266025249"/>
				<Con from="input/7" weight="-0.06055812530902755"/>
				<Con from="input/8" weight="0.28805370513167067"/>
				<Con from="input/9" weight="0.24353198245713426"/>
				<Con from="input/10" weight="0.1949558577395044"/>
				<Con from="input/11" weight="0.30675523298120827"/>
				<Con from="input/12" weight="0.1339390127276928"/>
				<Con from="input/13" weight="0.28218011595333325"/>
				<Con from="input/14" weight="-0.09195316703310147"/>
				<Con from="input/15" weight="0.2509316385392485"/>
				<Con from="input/16" weight="0.07214371522623136"/>
				<Con from="input/17" weight="-0.11401785833099491"/>
				<Con from="input/18" weight="0.10360358091763056"/>
				<Con from="input/19" weight="-0.0058464869929152575"/>
				<Con from="input/20" weight="-0.05499395618492389"/>
				<Con from="input/21" weight="-0.22497617409763765"/>
				<Con from="input/22" weight="-0.30762251792274503"/>
				<Con from="input/23" weight="-0.19637479646645553"/>
			</Neuron>
			<Neuron id="1/18" bias="-0.07369040619279307">
				<Con from="input/1" weight="-0.003147216092235495"/>
				<Con from="input/2" weight="-0.006016236982118946"/>
				<Con from="input/3" weight="-8.186617712436909E-5"/>
				<Con from="input/4" weight="-0.0037600077261015583"/>
				<Con from="input/5" weight="1.338934095370629E-7"/>
				<Con from="input/6" weight="3.918694121714122E-8"/>
				<Con from="input/7" weight="3.6904823249033516E-5"/>
				<Con from="input/8" weight="-0.013369931861368924"/>
				<Con from="input/9" weight="-0.006803648359766713"/>
				<Con from="input/10" weight="0.0034436188495297294"/>
				<Con from="input/11" weight="-0.01124813450305737"/>
				<Con from="input/12" weight="6.501339863424078E-6"/>
				<Con from="input/13" weight="-3.2718266217761734E-4"/>
				<Con from="input/14" weight="-0.011042706503808042"/>
				<Con from="input/15" weight="-0.0041365873810573954"/>
				<Con from="input/16" weight="-0.0017015201771526328"/>
				<Con from="input/17" weight="2.584152010585791E-5"/>
				<Con from="input/18" weight="-6.382498807250717E-10"/>
				<Con from="input/19" weight="-3.1575292659116116E-11"/>
				<Con from="input/20" weight="-2.6837475121860168E-8"/>
				<Con from="input/21" weight="-5.676516825744943E-4"/>
				<Con from="input/22" weight="-3.449036959665383E-8"/>
				<Con from="input/23" weight="0.0025971113935140413"/>
			</Neuron>
			<Neuron id="1/19" bias="-0.2149862863700648">
				<Con from="input/1" weight="-0.0034372075099490308"/>
				<Con from="input/2" weight="0.0115667747505848"/>
				<Con from="input/3" weight="-0.002778743930245128"/>
				<Con from="input/4" weight="-0.014522093748955746"/>
				<Con from="input/5" weight="-5.22525844831034E-11"/>
				<Con from="input/6" weight="2.4371291494047865E-4"/>
				<Con from="input/7" weight="0.0030467324423431815"/>
				<Con from="input/8" weight="-8.2860439700115E-11"/>
				<Con from="input/9" weight="3.086207764702544E-11"/>
				<Con from="input/10" weight="-6.961126420678056E-4"/>
				<Con from="input/11" weight="-4.744902661694683E-5"/>
				<Con from="input/12" weight="0.005062202705004495"/>
				<Con from="input/13" weight="-0.012134663287930694"/>
				<Con from="input/14" weight="0.001676583278893463"/>
				<Con from="input/15" weight="-0.0014909649336160027"/>
				<Con from="input/16" weight="-8.132603189408042E-10"/>
				<Con from="input/17" weight="-0.022083970150599336"/>
				<Con from="input/18" weight="-0.025150914631430887"/>
				<Con from="input/19" weight="-1.292706216966778E-5"/>
				<Con from="input/20" weight="-4.954004746652543E-4"/>
				<Con from="input/21" weight="-1.3190176744669175E-8"/>
				<Con from="input/22" weight="-4.424708295107883E-11"/>
				<Con from="input/23" weight="-6.549841387273288E-5"/>
			</Neuron>
			<Neuron id="1/20" bias="-0.1318719606399432">
				<Con from="input/1" weight="0.17744328291805156"/>
				<Con from="input/2" weight="0.314923890525201"/>
				<Con from="input/3" weight="-0.09605480670029162"/>
				<Con from="input/4" weight="-0.33049056531230375"/>
				<Con from="input/5" weight="0.14086652950571604"/>
				<Con from="input/6" weight="0.02578506682005384"/>
				<Con from="input/7" weight="0.0784679119027284"/>
				<Con from="input/8" weight="-0.06243340822758414"/>
				<Con from="input/9" weight="-0.07153221538925023"/>
				<Con from="input/10" weight="-0.21135942647457975"/>
				<Con from="input/11" weight="-0.002972351045134336"/>
				<Con from="input/12" weight="0.16409627976667676"/>
				<Con from="input/13" weight="-0.0335086999821382"/>
				<Con from="input/14" weight="-0.2179179053979572"/>
				<Con from="input/15" weight="-0.1169468899026857"/>
				<Con from="input/16" weight="0.005054179239820164"/>
				<Con from="input/17" weight="0.0635004917929111"/>
				<Con from="input/18" weight="0.17660157086739875"/>
				<Con from="input/19" weight="-0.09542542609705838"/>
				<Con from="input/20" weight="0.210673356001317"/>
				<Con from="input/21" weight="0.2183258615522395"/>
				<Con from="input/22" weight="0.4192375113147912"/>
				<Con from="input/23" weight="0.006639495428512053"/>
			</Neuron>
			<Neuron id="1/21" bias="-0.07437890350410736">
				<Con from="input/1" weight="-0.05451550575340815"/>
				<Con from="input/2" weight="0.18001304545862484"/>
				<Con from="input/3" weight="-0.17636984087328417"/>
				<Con from="input/4" weight="0.10678989341264315"/>
				<Con from="input/5" weight="0.05710092674355847"/>
				<Con from="input/6" weight="0.005941400840111911"/>
				<Con from="input/7" weight="-0.18096279140720412"/>
				<Con from="input/8" weight="0.03039871887572022"/>
				<Con from="input/9" weight="-0.1564178096453673"/>
				<Con from="input/10" weight="-0.2254768445220801"/>
				<Con from="input/11" weight="-0.002567235733639835"/>
				<Con from="input/12" weight="-0.07660652125395043"/>
				<Con from="input/13" weight="-0.09368225740057837"/>
				<Con from="input/14" weight="-0.04496291203318806"/>
				<Con from="input/15" weight="0.14102342148785793"/>
				<Con from="input/16" weight="0.10601285692148446"/>
				<Con from="input/17" weight="0.138868586552572"/>
				<Con from="input/18" weight="0.11919266731940176"/>
				<Con from="input/19" weight="-0.18354539317724672"/>
				<Con from="input/20" weight="-0.025793008999976677"/>
				<Con from="input/21" weight="0.046518945892773764"/>
				<Con from="input/22" weight="-0.08615715423952604"/>
				<Con from="input/23" weight="0.03431632252771828"/>
			</Neuron>
			<Neuron id="1/22" bias="-0.004612579201541928">
				<Con from="input/1" weight="-0.26047196973060116"/>
				<Con from="input/2" weight="0.08849350667010043"/>
				<Con from="input/3" weight="0.14763673186327866"/>
				<Con from="input/4" weight="0.2654872989387539"/>
				<Con from="input/5" weight="0.11835106506178665"/>
				<Con from="input/6" weight="0.14562665217097465"/>
				<Con from="input/7" weight="-0.11363617181236489"/>
				<Con from="input/8" weight="-0.08220980306730981"/>
				<Con from="input/9" weight="0.21593858614511588"/>
				<Con from="input/10" weight="0.12939684638902182"/>
				<Con from="input/11" weight="0.13021399729562982"/>
				<Con from="input/12" weight="0.23828987312967778"/>
				<Con from="input/13" weight="0.1562132872541559"/>
				<Con from="input/14" weight="0.1714407882733087"/>
				<Con from="input/15" weight="0.24870141095592474"/>
				<Con from="input/16" weight="-0.03846917033805921"/>
				<Con from="input/17" weight="0.17428842093430627"/>
				<Con from="input/18" weight="0.040941021404066545"/>
				<Con from="input/19" weight="-0.15814738112724305"/>
				<Con from="input/20" weight="-0.06364680816228228"/>
				<Con from="input/21" weight="-0.10446581533619333"/>
				<Con from="input/22" weight="-0.14194423401525966"/>
				<Con from="input/23" weight="-0.3042124845485692"/>
			</Neuron>
			<Neuron id="1/23" bias="0.2114628978169427">
				<Con from="input/1" weight="-0.31849661250449884"/>
				<Con from="input/2" weight="-0.3047286714199604"/>
				<Con from="input/3" weight="0.07071099886401681"/>
				<Con from="input/4" weight="0.4404983643821783"/>
				<Con from="input/5" weight="0.25949274825691115"/>
				<Con from="input/6" weight="0.31813361780709337"/>
				<Con from="input/7" weight="0.11599073424008519"/>
				<Con from="input/8" weight="0.029179927492468085"/>
				<Con from="input/9" weight="-0.07006859844681358"/>
				<Con from="input/10" weight="-0.15103759589205118"/>
				<Con from="input/11" weight="-0.10673891109105137"/>
				<Con from="input/12" weight="-0.00436705813515261"/>
				<Con from="input/13" weight="0.030798103901647455"/>
				<Con from="input/14" weight="-0.14666775304837312"/>
				<Con from="input/15" weight="0.13694692864455663"/>
				<Con from="input/16" weight="0.04768020025780864"/>
				<Con from="input/17" weight="0.09039899957604258"/>
				<Con from="input/18" weight="0.12166509097247874"/>
				<Con from="input/19" weight="0.12003727331612467"/>
				<Con from="input/20" weight="0.09043287140725016"/>
				<Con from="input/21" weight="0.017865028235787853"/>
				<Con from="input/22" weight="-0.31257265459935246"/>
				<Con from="input/23" weight="-0.3558697068798179"/>
			</Neuron>
			<Neuron id="1/24" bias="-0.010845027285012762">
				<Con from="input/1" weight="-0.09686650660590901"/>
				<Con from="input/2" weight="-0.32955671392922575"/>
				<Con from="input/3" weight="-0.13865435676999938"/>
				<Con from="input/4" weight="0.2578486117445758"/>
				<Con from="input/5" weight="0.016518133447779217"/>
				<Con from="input/6" weight="0.005664831027144181"/>
				<Con from="input/7" weight="0.13499805298829057"/>
				<Con from="input/8" weight="0.06254451588516476"/>
				<Con from="input/9" weight="-0.05983936231141919"/>
				<Con from="input/10" weight="-0.25553155637534086"/>
				<Con from="input/11" weight="-0.2690036303691315"/>
				<Con from="input/12" weight="-0.027458240114876117"/>
				<Con from="input/13" weight="-0.0284719480872734"/>
				<Con from="input/14" weight="0.14547997085813621"/>
				<Con from="input/15" weight="0.09825276586242593"/>
				<Con from="input/16" weight="0.17624370237525522"/>
				<Con from="input/17" weight="0.01940206269362446"/>
				<Con from="input/18" weight="0.24166385196976575"/>
				<Con from="input/19" weight="0.031941818691105656"/>
				<Con from="input/20" weight="0.11913753118368571"/>
				<Con from="input/21" weight="0.007081891121861224"/>
				<Con from="input/22" weight="-0.02424058485555722"/>
				<Con from="input/23" weight="-0.26677683684200615"/>
			</Neuron>
			<Neuron id="1/25" bias="-0.10198227991178858">
				<Con from="input/1" weight="0.17858660705198973"/>
				<Con from="input/2" weight="-0.20857604029788177"/>
				<Con from="input/3" weight="0.041424955862221315"/>
				<Con from="input/4" weight="0.09110434965698642"/>
				<Con from="input/5" weight="0.09801197899593656"/>
				<Con from="input/6" weight="-0.18990792207616977"/>
				<Con from="input/7" weight="-0.12641017939756255"/>
				<Con from="input/8" weight="0.028288643416921038"/>
				<Con from="input/9" weight="-0.04263986497835007"/>
				<Con from="input/10" weight="0.08228696915634487"/>
				<Con from="input/11" weight="-0.2366702707724285"/>
				<Con from="input/12" weight="0.14766521615693837"/>
				<Con from="input/13" weight="0.09068935698447131"/>
				<Con from="input/14" weight="0.06608319333077456"/>
				<Con from="input/15" weight="-5.565030971387675E-4"/>
				<Con from="input/16" weight="0.062287771608210245"/>
				<Con from="input/17" weight="-0.20162941588376396"/>
				<Con from="input/18" weight="-0.06672989724105588"/>
				<Con from="input/19" weight="0.05728998799179006"/>
				<Con from="input/20" weight="0.06556979066634162"/>
				<Con from="input/21" weight="-0.16785214022416903"/>
				<Con from="input/22" weight="-0.07443322570754565"/>
				<Con from="input/23" weight="0.06799433690693159"/>
			</Neuron>
			<Neuron id="1/26" bias="0.2102603892799737">
				<Con from="input/1" weight="0.18340381012972196"/>
				<Con from="input/2" weight="0.12627980911559122"/>
				<Con from="input/3" weight="0.07125048303774217"/>
				<Con from="input/4" weight="0.0015424126280783445"/>
				<Con from="input/5" weight="-0.09844608732802826"/>
				<Con from="input/6" weight="-0.21482231743085697"/>
				<Con from="input/7" weight="0.1370416820722149"/>
				<Con from="input/8" weight="-0.03415787980783866"/>
				<Con from="input/9" weight="-0.06759546742377394"/>
				<Con from="input/10" weight="-0.029817855053299955"/>
				<Con from="input/11" weight="0.06699812867049898"/>
				<Con from="input/12" weight="-0.1735480487467382"/>
				<Con from="input/13" weight="0.1131788782607195"/>
				<Con from="input/14" weight="0.12627708873553714"/>
				<Con from="input/15" weight="-0.18297456401464834"/>
				<Con from="input/16" weight="-0.10156340454359492"/>
				<Con from="input/17" weight="-0.1435611938531843"/>
				<Con from="input/18" weight="-0.1194840900468395"/>
				<Con from="input/19" weight="0.20050900275740172"/>
				<Con from="input/20" weight="0.13941656517031098"/>
				<Con from="input/21" weight="-0.06416473710737054"/>
				<Con from="input/22" weight="0.3759673345429456"/>
				<Con from="input/23" weight="0.3845204586940294"/>
			</Neuron>
			<Neuron id="1/27" bias="0.0644046599531604">
				<Con from="input/1" weight="0.28175657520900294"/>
				<Con from="input/2" weight="0.3264654323796799"/>
				<Con from="input/3" weight="0.0823873327327091"/>
				<Con from="input/4" weight="-0.3113322131958938"/>
				<Con from="input/5" weight="-0.1480443854663194"/>
				<Con from="input/6" weight="-0.19285659829741703"/>
				<Con from="input/7" weight="0.15664732654287067"/>
				<Con from="input/8" weight="-0.15855503512471594"/>
				<Con from="input/9" weight="0.16416287707617133"/>
				<Con from="input/10" weight="0.19061881203005324"/>
				<Con from="input/11" weight="0.19729402437357993"/>
				<Con from="input/12" weight="0.22007125500007457"/>
				<Con from="input/13" weight="-0.14841251164921238"/>
				<Con from="input/14" weight="0.15324278330638014"/>
				<Con from="input/15" weight="-0.005847933931021822"/>
				<Con from="input/16" weight="0.045475853371077665"/>
				<Con from="input/17" weight="0.15828668923940206"/>
				<Con from="input/18" weight="-0.1630620252374618"/>
				<Con from="input/19" weight="-0.07414573015531321"/>
				<Con from="input/20" weight="0.16071262409530923"/>
				<Con from="input/21" weight="-0.10722723544621626"/>
				<Con from="input/22" weight="0.1584171809859651"/>
				<Con from="input/23" weight="0.3333123697461043"/>
			</Neuron>
			<Neuron id="1/28" bias="-0.21554127372085174">
				<Con from="input/1" weight="-0.21054771449450174"/>
				<Con from="input/2" weight="-0.0834883190921193"/>
				<Con from="input/3" weight="-0.06721249582656996"/>
				<Con from="input/4" weight="-0.12819576379502104"/>
				<Con from="input/5" weight="-0.017137700871740227"/>
				<Con from="input/6" weight="-0.014732734701975109"/>
				<Con from="input/7" weight="-0.010065926773883214"/>
				<Con from="input/8" weight="0.006119690139171222"/>
				<Con from="input/9" weight="-0.05528685615704465"/>
				<Con from="input/10" weight="0.012649799453707667"/>
				<Con from="input/11" weight="-0.1421897760277289"/>
				<Con from="input/12" weight="0.15857148349931632"/>
				<Con from="input/13" weight="-0.1411047154422706"/>
				<Con from="input/14" weight="-0.056265724632915244"/>
				<Con from="input/15" weight="-0.09470634474061199"/>
				<Con from="input/16" weight="-0.041896978031477364"/>
				<Con from="input/17" weight="0.07002576746341789"/>
				<Con from="input/18" weight="0.20140593768445766"/>
				<Con from="input/19" weight="-0.018357526355693307"/>
				<Con from="input/20" weight="-0.10239729690300835"/>
				<Con from="input/21" weight="0.09296337569796384"/>
				<Con from="input/22" weight="-0.08691211938754391"/>
				<Con from="input/23" weight="0.15816760626549373"/>
			</Neuron>
			<Neuron id="1/29" bias="0.1793870847689402">
				<Con from="input/1" weight="0.3925657954471223"/>
				<Con from="input/2" weight="0.18140697307324585"/>
				<Con from="input/3" weight="-0.12103565086760056"/>
				<Con from="input/4" weight="-0.2738060867904495"/>
				<Con from="input/5" weight="-0.08194004524671493"/>
				<Con from="input/6" weight="-0.1712455840523322"/>
				<Con from="input/7" weight="-0.17928699794289352"/>
				<Con from="input/8" weight="-0.09877278502215284"/>
				<Con from="input/9" weight="0.2636354366743395"/>
				<Con from="input/10" weight="0.2876130904650847"/>
				<Con from="input/11" weight="0.013556212233410478"/>
				<Con from="input/12" weight="0.0476563910973015"/>
				<Con from="input/13" weight="0.1627363312909248"/>
				<Con from="input/14" weight="0.2066543023608409"/>
				<Con from="input/15" weight="-0.01318091645054792"/>
				<Con from="input/16" weight="-0.04216010436854752"/>
				<Con from="input/17" weight="0.1409506693066275"/>
				<Con from="input/18" weight="0.049431972659072274"/>
				<Con from="input/19" weight="0.11952734383367986"/>
				<Con from="input/20" weight="0.009470948139164036"/>
				<Con from="input/21" weight="-0.052562156118621604"/>
				<Con from="input/22" weight="-0.06369439526272905"/>
				<Con from="input/23" weight="-0.046548347690687907"/>
			</Neuron>
			<Neuron id="1/30" bias="-0.13603123712370868">
				<Con from="input/1" weight="-0.1544568056679423"/>
				<Con from="input/2" weight="0.11794483779951709"/>
				<Con from="input/3" weight="0.1801011068449922"/>
				<Con from="input/4" weight="0.190663178966232"/>
				<Con from="input/5" weight="0.18329799154381737"/>
				<Con from="input/6" weight="0.041050859330849995"/>
				<Con from="input/7" weight="0.04619865383225516"/>
				<Con from="input/8" weight="-0.14099817980901821"/>
				<Con from="input/9" weight="0.10270531261584737"/>
				<Con from="input/10" weight="-0.1797394643902963"/>
				<Con from="input/11" weight="0.11203706661538876"/>
				<Con from="input/12" weight="0.1536542293853523"/>
				<Con from="input/13" weight="0.06955551860376159"/>
				<Con from="input/14" weight="0.028628752976568566"/>
				<Con from="input/15" weight="-0.19631173468877533"/>
				<Con from="input/16" weight="-0.020486862779866895"/>
				<Con from="input/17" weight="0.17472456242076456"/>
				<Con from="input/18" weight="-0.05997043299688475"/>
				<Con from="input/19" weight="-0.13931776385883246"/>
				<Con from="input/20" weight="0.03149439343257816"/>
				<Con from="input/21" weight="-0.2211295544329679"/>
				<Con from="input/22" weight="-0.23374582516959044"/>
				<Con from="input/23" weight="-0.192613868842027"/>
			</Neuron>
			<Neuron id="1/31" bias="0.23485923723717783">
				<Con from="input/1" weight="0.09823284288672075"/>
				<Con from="input/2" weight="-0.08633203430076446"/>
				<Con from="input/3" weight="-0.02864459435967457"/>
				<Con from="input/4" weight="0.1975435359280161"/>
				<Con from="input/5" weight="-0.11852439907105358"/>
				<Con from="input/6" weight="0.33138274172690296"/>
				<Con from="input/7" weight="-0.10154466932167054"/>
				<Con from="input/8" weight="-0.0646831821101113"/>
				<Con from="input/9" weight="-0.11695711799791089"/>
				<Con from="input/10" weight="0.12109041048091113"/>
				<Con from="input/11" weight="-0.0991450090605402"/>
				<Con from="input/12" weight="0.20706421456962637"/>
				<Con from="input/13" weight="0.27023079787186305"/>
				<Con from="input/14" weight="0.22519107303985628"/>
				<Con from="input/15" weight="0.045938956758603794"/>
				<Con from="input/16" weight="0.12455442456688205"/>
				<Con from="input/17" weight="-0.08132116246822446"/>
				<Con from="input/18" weight="0.09428490020638168"/>
				<Con from="input/19" weight="0.18433478683978785"/>
				<Con from="input/20" weight="0.15035842400853647"/>
				<Con from="input/21" weight="-0.20063896614933416"/>
				<Con from="input/22" weight="-0.3576679601604159"/>
				<Con from="input/23" weight="-0.3279057203524398"/>
			</Neuron>
			<Neuron id="1/32" bias="0.010041589180382901">
				<Con from="input/1" weight="-0.08582572650094122"/>
				<Con from="input/2" weight="0.08027436013381946"/>
				<Con from="input/3" weight="0.14636255816040017"/>
				<Con from="input/4" weight="-0.05246205510981489"/>
				<Con from="input/5" weight="0.052120898493937994"/>
				<Con from="input/6" weight="-0.05968334295379916"/>
				<Con from="input/7" weight="0.09041335344247878"/>
				<Con from="input/8" weight="-0.12899681583249675"/>
				<Con from="input/9" weight="-0.08630224050423098"/>
				<Con from="input/10" weight="-0.10061282490537363"/>
				<Con from="input/11" weight="-0.09533918783302946"/>
				<Con from="input/12" weight="0.20864964705023376"/>
				<Con from="input/13" weight="-0.21508282416386465"/>
				<Con from="input/14" weight="0.1571365169028156"/>
				<Con from="input/15" weight="0.16265996227547114"/>
				<Con from="input/16" weight="-0.10750614634922374"/>
				<Con from="input/17" weight="-0.03977981854947888"/>
				<Con from="input/18" weight="-0.2201256364282137"/>
				<Con from="input/19" weight="0.1799843697496503"/>
				<Con from="input/20" weight="-0.040639487455387674"/>
				<Con from="input/21" weight="0.12523532882480376"/>
				<Con from="input/22" weight="-0.12722460191985308"/>
				<Con from="input/23" weight="-0.17959781194070046"/>
			</Neuron>
			<Neuron id="1/33" bias="0.13989187228617864">
				<Con from="input/1" weight="-0.024268060967037566"/>
				<Con from="input/2" weight="0.349700120273893"/>
				<Con from="input/3" weight="-0.046137402924240144"/>
				<Con from="input/4" weight="-0.0017118390562859017"/>
				<Con from="input/5" weight="-0.09587778579368451"/>
				<Con from="input/6" weight="-0.1088786311948401"/>
				<Con from="input/7" weight="-0.15018359552210736"/>
				<Con from="input/8" weight="-0.008719301958781893"/>
				<Con from="input/9" weight="0.12123639439747551"/>
				<Con from="input/10" weight="0.2499638963244334"/>
				<Con from="input/11" weight="0.02383710327885974"/>
				<Con from="input/12" weight="0.11560135342933003"/>
				<Con from="input/13" weight="-0.1211725463526268"/>
				<Con from="input/14" weight="0.0698331688251059"/>
				<Con from="input/15" weight="0.04769890297937386"/>
				<Con from="input/16" weight="-0.045846281638961525"/>
				<Con from="input/17" weight="0.15837768043213213"/>
				<Con from="input/18" weight="-0.019283491060871967"/>
				<Con from="input/19" weight="-0.22377818935421617"/>
				<Con from="input/20" weight="-0.08789435292747022"/>
				<Con from="input/21" weight="0.16135140259367178"/>
				<Con from="input/22" weight="0.347767286452784"/>
				<Con from="input/23" weight="0.2786899309931144"/>
			</Neuron>
			<Neuron id="1/34" bias="0.03024343737018458">
				<Con from="input/1" weight="-0.29939622840906643"/>
				<Con from="input/2" weight="-0.417446671150945"/>
				<Con from="input/3" weight="0.18477606490894247"/>
				<Con from="input/4" weight="0.200287569738413"/>
				<Con from="input/5" weight="0.248957066656242"/>
				<Con from="input/6" weight="0.12602057610296366"/>
				<Con from="input/7" weight="0.16269461244500566"/>
				<Con from="input/8" weight="0.014774426901286728"/>
				<Con from="input/9" weight="-0.0546481718154637"/>
				<Con from="input/10" weight="-0.27888938227399834"/>
				<Con from="input/11" weight="0.08405773308656707"/>
				<Con from="input/12" weight="-0.243949899808074"/>
				<Con from="input/13" weight="0.24923905619834022"/>
				<Con from="input/14" weight="-0.1683058542314473"/>
				<Con from="input/15" weight="-0.011011754379976568"/>
				<Con from="input/16" weight="0.09591160279157143"/>
				<Con from="input/17" weight="0.1953765984149634"/>
				<Con from="input/18" weight="0.017575077858264766"/>
				<Con from="input/19" weight="0.19717679186471432"/>
				<Con from="input/20" weight="0.08790553051404805"/>
				<Con from="input/21" weight="-0.08630524847479953"/>
				<Con from="input/22" weight="0.050344282508000604"/>
				<Con from="input/23" weight="-0.2015391530934639"/>
			</Neuron>
			<Neuron id="1/35" bias="-0.04005592664208155">
				<Con from="input/1" weight="0.08040774719070413"/>
				<Con from="input/2" weight="0.3900252716838837"/>
				<Con from="input/3" weight="-0.027372192377445176"/>
				<Con from="input/4" weight="-0.2747496084884385"/>
				<Con from="input/5" weight="-0.2281035030931814"/>
				<Con from="input/6" weight="-0.09891147674444328"/>
				<Con from="input/7" weight="-0.1488057545792622"/>
				<Con from="input/8" weight="0.28412249012371155"/>
				<Con from="input/9" weight="0.11293458838924095"/>
				<Con from="input/10" weight="0.31745229020765536"/>
				<Con from="input/11" weight="0.11423090824234224"/>
				<Con from="input/12" weight="0.3068378255231035"/>
				<Con from="input/13" weight="0.15043993129214062"/>
				<Con from="input/14" weight="0.08669351847758412"/>
				<Con from="input/15" weight="-0.028567394920460135"/>
				<Con from="input/16" weight="-0.11117270530081724"/>
				<Con from="input/17" weight="0.19293716864662788"/>
				<Con from="input/18" weight="-0.00785387443015503"/>
				<Con from="input/19" weight="-0.03793225987510896"/>
				<Con from="input/20" weight="0.13780442985847832"/>
				<Con from="input/21" weight="-0.15481341202057206"/>
				<Con from="input/22" weight="-0.31879249819456534"/>
				<Con from="input/23" weight="-0.3558372093985184"/>
			</Neuron>
			<Neuron id="1/36" bias="0.10409237436949333">
				<Con from="input/1" weight="-0.013335920229720653"/>
				<Con from="input/2" weight="0.005348140072000736"/>
				<Con from="input/3" weight="-0.12851035478524836"/>
				<Con from="input/4" weight="0.03593313099067019"/>
				<Con from="input/5" weight="-0.10951891245490944"/>
				<Con from="input/6" weight="0.16989551496864633"/>
				<Con from="input/7" weight="0.1286637891125425"/>
				<Con from="input/8" weight="0.17471461550916367"/>
				<Con from="input/9" weight="-0.16502870494507238"/>
				<Con from="input/10" weight="-0.11237773055036597"/>
				<Con from="input/11" weight="0.030382157212930312"/>
				<Con from="input/12" weight="-0.07244807525502853"/>
				<Con from="input/13" weight="0.046850001515728636"/>
				<Con from="input/14" weight="-0.11796968059877569"/>
				<Con from="input/15" weight="0.09776660622200957"/>
				<Con from="input/16" weight="0.06729061045165842"/>
				<Con from="input/17" weight="-0.13318699879084914"/>
				<Con from="input/18" weight="-0.19549637292058025"/>
				<Con from="input/19" weight="-0.15644971249114845"/>
				<Con from="input/20" weight="0.07947506003394507"/>
				<Con from="input/21" weight="0.1549229085539429"/>
				<Con from="input/22" weight="-0.08536948258358991"/>
				<Con from="input/23" weight="-0.17249255723192738"/>
			</Neuron>
			<Neuron id="1/37" bias="0.03444673728279101">
				<Con from="input/1" weight="-0.03945542545036836"/>
				<Con from="input/2" weight="0.0918519660409907"/>
				<Con from="input/3" weight="0.18454565468584966"/>
				<Con from="input/4" weight="0.03443071630908224"/>
				<Con from="input/5" weight="0.11285772539767254"/>
				<Con from="input/6" weight="0.09880739018163123"/>
				<Con from="input/7" weight="-0.14340545040903183"/>
				<Con from="input/8" weight="-0.1690469322511685"/>
				<Con from="input/9" weight="-0.005195572699854096"/>
				<Con from="input/10" weight="-0.10954178760493169"/>
				<Con from="input/11" weight="-0.1385960978906414"/>
				<Con from="input/12" weight="0.07350813009596295"/>
				<Con from="input/13" weight="-0.1734203133117822"/>
				<Con from="input/14" weight="0.1563580017161858"/>
				<Con from="input/15" weight="-0.18182839802068337"/>
				<Con from="input/16" weight="-0.11577925119617709"/>
				<Con from="input/17" weight="0.17568613447039352"/>
				<Con from="input/18" weight="0.06663348410192295"/>
				<Con from="input/19" weight="0.20734199158179248"/>
				<Con from="input/20" weight="-0.061700676816699"/>
				<Con from="input/21" weight="0.2501645420683217"/>
				<Con from="input/22" weight="0.4239960019634494"/>
				<Con from="input/23" weight="0.3064814886327218"/>
			</Neuron>
			<Neuron id="1/38" bias="0.23443332691229216">
				<Con from="input/1" weight="-0.18123017049352094"/>
				<Con from="input/2" weight="-0.0038352754810034497"/>
				<Con from="input/3" weight="0.14315216376706097"/>
				<Con from="input/4" weight="-0.00685713439941062"/>
				<Con from="input/5" weight="0.24343567382593564"/>
				<Con from="input/6" weight="0.11162309367646368"/>
				<Con from="input/7" weight="0.12355496518096767"/>
				<Con from="input/8" weight="0.13197538196965927"/>
				<Con from="input/9" weight="-0.054258453294779796"/>
				<Con from="input/10" weight="0.04703811160336997"/>
				<Con from="input/11" weight="0.04158611355505473"/>
				<Con from="input/12" weight="-0.09974417909497298"/>
				<Con from="input/13" weight="-0.2700161115945393"/>
				<Con from="input/14" weight="-0.04807336154471152"/>
				<Con from="input/15" weight="-0.18809867182746326"/>
				<Con from="input/16" weight="-0.14295153149481532"/>
				<Con from="input/17" weight="-0.050913518414280844"/>
				<Con from="input/18" weight="-0.00331656014735419"/>
				<Con from="input/19" weight="-0.08021627594615324"/>
				<Con from="input/20" weight="0.38335920340008267"/>
				<Con from="input/21" weight="0.31757357549548787"/>
				<Con from="input/22" weight="0.1461889885193486"/>
				<Con from="input/23" weight="0.28082223642107257"/>
			</Neuron>
			<Neuron id="1/39" bias="-0.018070132298030422">
				<Con from="input/1" weight="-8.970508463651648E-4"/>
				<Con from="input/2" weight="-6.095231060303024E-4"/>
				<Con from="input/3" weight="0.011161106687755405"/>
				<Con from="input/4" weight="-0.007549242426490478"/>
				<Con from="input/5" weight="5.848299784650653E-7"/>
				<Con from="input/6" weight="5.538861607456147E-8"/>
				<Con from="input/7" weight="-0.022176994231832937"/>
				<Con from="input/8" weight="6.740036615925953E-12"/>
				<Con from="input/9" weight="0.007334212309965156"/>
				<Con from="input/10" weight="5.742598221429381E-10"/>
				<Con from="input/11" weight="-0.026717288205869424"/>
				<Con from="input/12" weight="1.0959339467289534E-4"/>
				<Con from="input/13" weight="-3.4745586802222834E-5"/>
				<Con from="input/14" weight="2.5334527587781665E-6"/>
				<Con from="input/15" weight="5.523964696015502E-11"/>
				<Con from="input/16" weight="4.6037491976598536E-10"/>
				<Con from="input/17" weight="7.780151800009101E-8"/>
				<Con from="input/18" weight="-6.73097842501447E-4"/>
				<Con from="input/19" weight="-0.01129958431611292"/>
				<Con from="input/20" weight="0.018142554771599644"/>
				<Con from="input/21" weight="-0.027139672029165833"/>
				<Con from="input/22" weight="1.7037801014626135E-5"/>
				<Con from="input/23" weight="3.3331130815008426E-5"/>
			</Neuron>
			<Neuron id="1/40" bias="-0.17369791981531216">
				<Con from="input/1" weight="0.011263677206150643"/>
				<Con from="input/2" weight="-0.10716434757289078"/>
				<Con from="input/3" weight="0.19206442142279087"/>
				<Con from="input/4" weight="-0.0013539243040119175"/>
				<Con from="input/5" weight="0.2840702232642961"/>
				<Con from="input/6" weight="-0.00918687474999841"/>
				<Con from="input/7" weight="0.17615309429407405"/>
				<Con from="input/8" weight="-0.2161192422840957"/>
				<Con from="input/9" weight="0.023017029811285297"/>
				<Con from="input/10" weight="-0.26631926706752024"/>
				<Con from="input/11" weight="-0.18912939323010325"/>
				<Con from="input/12" weight="0.08075232321848698"/>
				<Con from="input/13" weight="0.0665211149246196"/>
				<Con from="input/14" weight="0.023259121498915354"/>
				<Con from="input/15" weight="-0.08258650464422312"/>
				<Con from="input/16" weight="0.07909251886446747"/>
				<Con from="input/17" weight="0.24177330594326485"/>
				<Con from="input/18" weight="0.10643266806998004"/>
				<Con from="input/19" weight="0.12019843445563798"/>
				<Con from="input/20" weight="0.21411070539591245"/>
				<Con from="input/21" weight="0.06683095331211227"/>
				<Con from="input/22" weight="0.09164746715165713"/>
				<Con from="input/23" weight="-0.06655422065491548"/>
			</Neuron>
			<Neuron id="1/41" bias="0.023562597497042523">
				<Con from="input/1" weight="0.05114051586106934"/>
				<Con from="input/2" weight="-0.28368201313236124"/>
				<Con from="input/3" weight="-0.046143438192610665"/>
				<Con from="input/4" weight="0.2472927676630646"/>
				<Con from="input/5" weight="0.27882874520541834"/>
				<Con from="input/6" weight="0.03896323492864947"/>
				<Con from="input/7" weight="0.20175689566666685"/>
				<Con from="input/8" weight="-0.14820634571362062"/>
				<Con from="input/9" weight="0.10779714167561216"/>
				<Con from="input/10" weight="-0.2464373335918388"/>
				<Con from="input/11" weight="0.15914819968314767"/>
				<Con from="input/12" weight="0.059365397239511786"/>
				<Con from="input/13" weight="0.05745290073847763"/>
				<Con from="input/14" weight="-0.22740499552764293"/>
				<Con from="input/15" weight="-0.043785493676404566"/>
				<Con from="input/16" weight="0.12853281583106857"/>
				<Con from="input/17" weight="0.1783140831848686"/>
				<Con from="input/18" weight="0.09561710963965621"/>
				<Con from="input/19" weight="0.16524798605295474"/>
				<Con from="input/20" weight="0.05290959430798398"/>
				<Con from="input/21" weight="0.005310115670083408"/>
				<Con from="input/22" weight="0.30705837524256974"/>
				<Con from="input/23" weight="0.11436268469158599"/>
			</Neuron>
			<Neuron id="1/42" bias="0.02579469728283848">
				<Con from="input/1" weight="-0.01763458215412309"/>
				<Con from="input/2" weight="-0.013673455766073638"/>
				<Con from="input/3" weight="7.022935583371606E-5"/>
				<Con from="input/4" weight="-0.019990388511231603"/>
				<Con from="input/5" weight="0.005289034160177546"/>
				<Con from="input/6" weight="0.006604403244460017"/>
				<Con from="input/7" weight="-3.186091531099685E-4"/>
				<Con from="input/8" weight="-4.099646548099548E-8"/>
				<Con from="input/9" weight="5.330770031832296E-11"/>
				<Con from="input/10" weight="-2.126968987420122E-8"/>
				<Con from="input/11" weight="-0.0157796763246608"/>
				<Con from="input/12" weight="-3.53662505704457E-8"/>
				<Con from="input/13" weight="0.0010857554989830548"/>
				<Con from="input/14" weight="-5.288980073432703E-4"/>
				<Con from="input/15" weight="-0.005539998545497867"/>
				<Con from="input/16" weight="-1.9828833922847003E-13"/>
				<Con from="input/17" weight="-0.014654796135134474"/>
				<Con from="input/18" weight="-0.010981823689412239"/>
				<Con from="input/19" weight="0.0019055562940315607"/>
				<Con from="input/20" weight="-0.008053301207140501"/>
				<Con from="input/21" weight="-6.71603777623054E-12"/>
				<Con from="input/22" weight="-0.013973423119645664"/>
				<Con from="input/23" weight="9.903958363714738E-4"/>
			</Neuron>
			<Neuron id="1/43" bias="0.1561454044544738">
				<Con from="input/1" weight="-0.14945677329944543"/>
				<Con from="input/2" weight="-0.16310260106576555"/>
				<Con from="input/3" weight="0.03422240221277441"/>
				<Con from="input/4" weight="0.19171873753118904"/>
				<Con from="input/5" weight="0.27421673892204484"/>
				<Con from="input/6" weight="0.2774197096095176"/>
				<Con from="input/7" weight="0.1248523772846904"/>
				<Con from="input/8" weight="-0.06769331805389261"/>
				<Con from="input/9" weight="-0.09632421163341795"/>
				<Con from="input/10" weight="-0.15960743187294107"/>
				<Con from="input/11" weight="0.0355775783294831"/>
				<Con from="input/12" weight="-0.1054230224803676"/>
				<Con from="input/13" weight="-0.15120638797782784"/>
				<Con from="input/14" weight="-0.1353457132040591"/>
				<Con from="input/15" weight="0.20587438926644025"/>
				<Con from="input/16" weight="-0.10234866761817224"/>
				<Con from="input/17" weight="0.2501128996965988"/>
				<Con from="input/18" weight="0.11767454498769753"/>
				<Con from="input/19" weight="0.07503100604330752"/>
				<Con from="input/20" weight="0.14896422920215344"/>
				<Con from="input/21" weight="-0.02321122712423269"/>
				<Con from="input/22" weight="-0.1269970796137333"/>
				<Con from="input/23" weight="-0.2301472958556751"/>
			</Neuron>
			<Neuron id="1/44" bias="-0.16011434067863076">
				<Con from="input/1" weight="0.03826480040526488"/>
				<Con from="input/2" weight="0.17648053779223025"/>
				<Con from="input/3" weight="0.1626337717930619"/>
				<Con from="input/4" weight="0.060883056169346174"/>
				<Con from="input/5" weight="-0.0892178528459259"/>
				<Con from="input/6" weight="5.783466287255114E-10"/>
				<Con from="input/7" weight="-0.0247599787609538"/>
				<Con from="input/8" weight="0.1088240340406297"/>
				<Con from="input/9" weight="-0.03132741385766925"/>
				<Con from="input/10" weight="0.026982083248957046"/>
				<Con from="input/11" weight="-0.056882929434318615"/>
				<Con from="input/12" weight="-0.009981930686436286"/>
				<Con from="input/13" weight="-0.09966604206085199"/>
				<Con from="input/14" weight="0.1800585157424765"/>
				<Con from="input/15" weight="0.13996665298903993"/>
				<Con from="input/16" weight="-0.025186113634310097"/>
				<Con from="input/17" weight="-0.04206896803779099"/>
				<Con from="input/18" weight="-0.12669712950925655"/>
				<Con from="input/19" weight="-0.04357533786760617"/>
				<Con from="input/20" weight="-0.09082180466460453"/>
				<Con from="input/21" weight="0.02806160040435071"/>
				<Con from="input/22" weight="-0.060527369418083087"/>
				<Con from="input/23" weight="0.14551694169018958"/>
			</Neuron>
			<Neuron id="1/45" bias="0.09906908419280695">
				<Con from="input/1" weight="-0.23900009744021716"/>
				<Con from="input/2" weight="-0.172320832738385"/>
				<Con from="input/3" weight="0.22403677407218775"/>
				<Con from="input/4" weight="0.18210952823861398"/>
				<Con from="input/5" weight="0.15446694417218226"/>
				<Con from="input/6" weight="0.11618237820614312"/>
				<Con from="input/7" weight="0.11505313927725093"/>
				<Con from="input/8" weight="0.1317261724362453"/>
				<Con from="input/9" weight="-0.21443837965785578"/>
				<Con from="input/10" weight="-0.1755624927804267"/>
				<Con from="input/11" weight="0.050130399366512784"/>
				<Con from="input/12" weight="0.1761970596994373"/>
				<Con from="input/13" weight="0.16885708275626257"/>
				<Con from="input/14" weight="0.09305770023627456"/>
				<Con from="input/15" weight="-0.027580997609700578"/>
				<Con from="input/16" weight="-0.13673323699089432"/>
				<Con from="input/17" weight="0.017736008127507932"/>
				<Con from="input/18" weight="-0.0906590890906406"/>
				<Con from="input/19" weight="-0.04664434512352676"/>
				<Con from="input/20" weight="0.2731349247642184"/>
				<Con from="input/21" weight="0.12183513817164945"/>
				<Con from="input/22" weight="-0.21171642300760082"/>
				<Con from="input/23" weight="-0.051201640403362926"/>
			</Neuron>
			<Neuron id="1/46" bias="0.19934702950572375">
				<Con from="input/1" weight="-0.17334521189703941"/>
				<Con from="input/2" weight="-0.19647865900131184"/>
				<Con from="input/3" weight="0.24535396799936293"/>
				<Con from="input/4" weight="0.3256927845378447"/>
				<Con from="input/5" weight="0.2346396397267381"/>
				<Con from="input/6" weight="0.11254148140868739"/>
				<Con from="input/7" weight="0.07167038628495769"/>
				<Con from="input/8" weight="-0.08801885050586482"/>
				<Con from="input/9" weight="-0.1922840723060337"/>
				<Con from="input/10" weight="-0.26272804667002275"/>
				<Con from="input/11" weight="7.473848152773875E-4"/>
				<Con from="input/12" weight="0.15423873988340772"/>
				<Con from="input/13" weight="0.11813492021426461"/>
				<Con from="input/14" weight="-0.05968366211939364"/>
				<Con from="input/15" weight="0.1898080043488497"/>
				<Con from="input/16" weight="0.03384523870712046"/>
				<Con from="input/17" weight="-0.11850658334550661"/>
				<Con from="input/18" weight="0.05198833819404163"/>
				<Con from="input/19" weight="-0.11340834159817884"/>
				<Con from="input/20" weight="0.1733050396649204"/>
				<Con from="input/21" weight="0.077786925367128"/>
				<Con from="input/22" weight="-0.024055949555147962"/>
				<Con from="input/23" weight="-0.21346648952019326"/>
			</Neuron>
			<Neuron id="1/47" bias="-0.11284468663574405">
				<Con from="input/1" weight="0.0222050007419683"/>
				<Con from="input/2" weight="9.240428266925925E-6"/>
				<Con from="input/3" weight="-6.758763556509288E-5"/>
				<Con from="input/4" weight="-4.6244003478766776E-7"/>
				<Con from="input/5" weight="-0.0012330716744443795"/>
				<Con from="input/6" weight="-0.0019806906108491124"/>
				<Con from="input/7" weight="1.363562757184118E-10"/>
				<Con from="input/8" weight="1.0578921777395136E-9"/>
				<Con from="input/9" weight="0.006320037581685512"/>
				<Con from="input/10" weight="-5.1514375577860315E-11"/>
				<Con from="input/11" weight="4.0934359829562965E-8"/>
				<Con from="input/12" weight="-1.4343674538610354E-11"/>
				<Con from="input/13" weight="-0.0027761131021537206"/>
				<Con from="input/14" weight="3.5027214628757726E-10"/>
				<Con from="input/15" weight="9.215889518859301E-12"/>
				<Con from="input/16" weight="-0.01601443010675105"/>
				<Con from="input/17" weight="9.869428879621992E-9"/>
				<Con from="input/18" weight="-1.5573924330084799E-9"/>
				<Con from="input/19" weight="-5.185868636200338E-11"/>
				<Con from="input/20" weight="-3.3971044502883985E-6"/>
				<Con from="input/21" weight="-0.014340101941495188"/>
				<Con from="input/22" weight="4.620083722977593E-9"/>
				<Con from="input/23" weight="-3.781496488753024E-4"/>
			</Neuron>
			<Neuron id="1/48" bias="0.09500854115742524">
				<Con from="input/1" weight="0.4086932543849206"/>
				<Con from="input/2" weight="0.020224561444535306"/>
				<Con from="input/3" weight="0.01920320448289567"/>
				<Con from="input/4" weight="-0.10911195610413486"/>
				<Con from="input/5" weight="-0.2507720063671247"/>
				<Con from="input/6" weight="-0.284926050188105"/>
				<Con from="input/7" weight="-0.03977987640383313"/>
				<Con from="input/8" weight="-5.111754092780686E-4"/>
				<Con from="input/9" weight="0.2122408830413757"/>
				<Con from="input/10" weight="0.21816024585640462"/>
				<Con from="input/11" weight="0.015411307849915597"/>
				<Con from="input/12" weight="0.21457533450081964"/>
				<Con from="input/13" weight="-0.06859969230754585"/>
				<Con from="input/14" weight="0.06393622555722175"/>
				<Con from="input/15" weight="-0.1443651417583534"/>
				<Con from="input/16" weight="0.1429876235924475"/>
				<Con from="input/17" weight="-0.22807935289626402"/>
				<Con from="input/18" weight="0.1467242181990312"/>
				<Con from="input/19" weight="-0.018349469136178635"/>
				<Con from="input/20" weight="0.11925957575431223"/>
				<Con from="input/21" weight="-0.16701283302310493"/>
				<Con from="input/22" weight="0.2781612849789234"/>
				<Con from="input/23" weight="-0.004588306915034437"/>
			</Neuron>
			<Neuron id="1/49" bias="0.11979259343095978">
				<Con from="input/1" weight="0.09452175728625008"/>
				<Con from="input/2" weight="0.23137304085725469"/>
				<Con from="input/3" weight="0.15690450625836977"/>
				<Con from="input/4" weight="-0.29240542787899937"/>
				<Con from="input/5" weight="-0.15274172685917417"/>
				<Con from="input/6" weight="0.03139567071925771"/>
				<Con from="input/7" weight="-0.2361370377789933"/>
				<Con from="input/8" weight="0.08240847074555768"/>
				<Con from="input/9" weight="0.06770452738829924"/>
				<Con from="input/10" weight="0.16781333746146493"/>
				<Con from="input/11" weight="-0.09368769886751954"/>
				<Con from="input/12" weight="0.07287086417326469"/>
				<Con from="input/13" weight="-0.06538332841470755"/>
				<Con from="input/14" weight="0.010409789376917082"/>
				<Con from="input/15" weight="-0.1287481736915222"/>
				<Con from="input/16" weight="-0.13067003260320081"/>
				<Con from="input/17" weight="-0.14444964318719752"/>
				<Con from="input/18" weight="0.020706848071927592"/>
				<Con from="input/19" weight="0.19324861191692108"/>
				<Con from="input/20" weight="0.1867122739609855"/>
				<Con from="input/21" weight="-0.027350025885440055"/>
				<Con from="input/22" weight="0.3823575768678446"/>
				<Con from="input/23" weight="0.11373594526427387"/>
			</Neuron>
			<Neuron id="1/50" bias="-0.03857669552651843">
				<Con from="input/1" weight="-0.25180194328760724"/>
				<Con from="input/2" weight="-0.38889789849561385"/>
				<Con from="input/3" weight="-0.17476119023240422"/>
				<Con from="input/4" weight="0.2515479397080321"/>
				<Con from="input/5" weight="0.07205741796510738"/>
				<Con from="input/6" weight="0.09973140770094541"/>
				<Con from="input/7" weight="0.13033400450774457"/>
				<Con from="input/8" weight="0.061438029044555094"/>
				<Con from="input/9" weight="0.009528866697876903"/>
				<Con from="input/10" weight="0.023559019613363496"/>
				<Con from="input/11" weight="0.1120636015952836"/>
				<Con from="input/12" weight="-0.13939542718036796"/>
				<Con from="input/13" weight="-0.04660096730949181"/>
				<Con from="input/14" weight="0.18939758601650722"/>
				<Con from="input/15" weight="0.18747354957156212"/>
				<Con from="input/16" weight="0.2869161527800802"/>
				<Con from="input/17" weight="0.03990164712642692"/>
				<Con from="input/18" weight="-0.057969415748977175"/>
				<Con from="input/19" weight="0.09177853577958968"/>
				<Con from="input/20" weight="-0.016202220453746922"/>
				<Con from="input/21" weight="-0.2062094038797338"/>
				<Con from="input/22" weight="-0.11305237985791902"/>
				<Con from="input/23" weight="-0.06739529718309403"/>
			</Neuron>
			<Neuron id="1/51" bias="-0.12538274227200658">
				<Con from="input/1" weight="-0.0018581654222287489"/>
				<Con from="input/2" weight="-2.2510424254881228E-11"/>
				<Con from="input/3" weight="0.007332456784459216"/>
				<Con from="input/4" weight="-0.019364696891380005"/>
				<Con from="input/5" weight="0.0012492771224657054"/>
				<Con from="input/6" weight="0.01899594752550341"/>
				<Con from="input/7" weight="2.3979155179687027E-9"/>
				<Con from="input/8" weight="-1.6827484147373252E-8"/>
				<Con from="input/9" weight="-0.02604413080290123"/>
				<Con from="input/10" weight="3.635559257974897E-8"/>
				<Con from="input/11" weight="-3.0613950902190414E-4"/>
				<Con from="input/12" weight="-0.0027512101655693187"/>
				<Con from="input/13" weight="-0.0025733760429094508"/>
				<Con from="input/14" weight="-0.012145461005841915"/>
				<Con from="input/15" weight="3.764996308110005E-8"/>
				<Con from="input/16" weight="0.026004707568935498"/>
				<Con from="input/17" weight="0.026412279482576552"/>
				<Con from="input/18" weight="-0.0013532471614562131"/>
				<Con from="input/19" weight="-1.0481958308351928E-10"/>
				<Con from="input/20" weight="-0.01042680843238799"/>
				<Con from="input/21" weight="6.566052405494276E-10"/>
				<Con from="input/22" weight="-9.490708551490105E-4"/>
				<Con from="input/23" weight="-7.674862904758971E-4"/>
			</Neuron>
			<Neuron id="1/52" bias="-0.07922613129902716">
				<Con from="input/1" weight="0.0966068456741025"/>
				<Con from="input/2" weight="-0.03231837841414809"/>
				<Con from="input/3" weight="0.03762820749074292"/>
				<Con from="input/4" weight="-0.2391081803111652"/>
				<Con from="input/5" weight="0.0171331629158875"/>
				<Con from="input/6" weight="-0.1891508020344303"/>
				<Con from="input/7" weight="0.048369281343953324"/>
				<Con from="input/8" weight="0.037549448048714865"/>
				<Con from="input/9" weight="-0.11386486617778817"/>
				<Con from="input/10" weight="-0.15709988845180134"/>
				<Con from="input/11" weight="-0.14215555113408304"/>
				<Con from="input/12" weight="-0.15067344197037533"/>
				<Con from="input/13" weight="0.013937751846182993"/>
				<Con from="input/14" weight="-0.054837915142716416"/>
				<Con from="input/15" weight="-0.09493540368038483"/>
				<Con from="input/16" weight="0.2053428585992558"/>
				<Con from="input/17" weight="0.0010363962986507235"/>
				<Con from="input/18" weight="0.18904997410809402"/>
				<Con from="input/19" weight="0.010799335810804849"/>
				<Con from="input/20" weight="0.2480449798936612"/>
				<Con from="input/21" weight="-0.010902050350589951"/>
				<Con from="input/22" weight="0.267848804505898"/>
				<Con from="input/23" weight="0.36773870491377275"/>
			</Neuron>
			<Neuron id="1/53" bias="-0.054323725982743404">
				<Con from="input/1" weight="0.37296025768324687"/>
				<Con from="input/2" weight="0.13169482323075757"/>
				<Con from="input/3" weight="-0.26169720566397475"/>
				<Con from="input/4" weight="-0.08336134308499485"/>
				<Con from="input/5" weight="-0.1519768587190236"/>
				<Con from="input/6" weight="-0.2316618445317607"/>
				<Con from="input/7" weight="0.09306547699885513"/>
				<Con from="input/8" weight="0.010129404992277937"/>
				<Con from="input/9" weight="0.2730678958546177"/>
				<Con from="input/10" weight="0.24123264469639447"/>
				<Con from="input/11" weight="0.33987946905640304"/>
				<Con from="input/12" weight="0.378768600154944"/>
				<Con from="input/13" weight="0.40499853483810494"/>
				<Con from="input/14" weight="0.32553021670085275"/>
				<Con from="input/15" weight="0.055865992603569475"/>
				<Con from="input/16" weight="0.03821371082025792"/>
				<Con from="input/17" weight="0.019646920881197114"/>
				<Con from="input/18" weight="0.23654713553694726"/>
				<Con from="input/19" weight="-0.1962536756269306"/>
				<Con from="input/20" weight="-0.3441041540002464"/>
				<Con from="input/21" weight="-0.2602765029823174"/>
				<Con from="input/22" weight="-0.2639367821683693"/>
				<Con from="input/23" weight="-0.2276809265224476"/>
			</Neuron>
			<Neuron id="1/54" bias="-0.07621337362811764">
				<Con from="input/1" weight="-0.30160963655740813"/>
				<Con from="input/2" weight="0.0031368291377615876"/>
				<Con from="input/3" weight="-0.1856116131279428"/>
				<Con from="input/4" weight="0.3190857780877432"/>
				<Con from="input/5" weight="-6.956490580015334E-4"/>
				<Con from="input/6" weight="0.32924720038270333"/>
				<Con from="input/7" weight="0.12999306353064272"/>
				<Con from="input/8" weight="-0.0700182565672402"/>
				<Con from="input/9" weight="-0.2390935912594472"/>
				<Con from="input/10" weight="0.09797259404691122"/>
				<Con from="input/11" weight="-0.23702681027485847"/>
				<Con from="input/12" weight="0.1805161429992597"/>
				<Con from="input/13" weight="0.02133496821328792"/>
				<Con from="input/14" weight="0.11214741777065973"/>
				<Con from="input/15" weight="0.2382588454416696"/>
				<Con from="input/16" weight="0.26677202931380667"/>
				<Con from="input/17" weight="0.19777080083630266"/>
				<Con from="input/18" weight="0.014849528162545273"/>
				<Con from="input/19" weight="7.753420036856156E-4"/>
				<Con from="input/20" weight="0.1610222052140985"/>
				<Con from="input/21" weight="-0.04603467249909651"/>
				<Con from="input/22" weight="-0.2071842513042849"/>
				<Con from="input/23" weight="-0.324807152044426"/>
			</Neuron>
			<Neuron id="1/55" bias="0.23491027965724495">
				<Con from="input/1" weight="-0.03303785170116301"/>
				<Con from="input/2" weight="0.0795546465142172"/>
				<Con from="input/3" weight="0.027982403973537715"/>
				<Con from="input/4" weight="-0.04331316873290422"/>
				<Con from="input/5" weight="-0.10969058156170414"/>
				<Con from="input/6" weight="0.10139269468812939"/>
				<Con from="input/7" weight="0.11191573757853515"/>
				<Con from="input/8" weight="-0.2116741049886061"/>
				<Con from="input/9" weight="0.16751667893587127"/>
				<Con from="input/10" weight="-0.06917922789290029"/>
				<Con from="input/11" weight="-0.014691243337364384"/>
				<Con from="input/12" weight="-1.8053789882210264E-4"/>
				<Con from="input/13" weight="-0.12934281914028659"/>
				<Con from="input/14" weight="0.1916532232013602"/>
				<Con from="input/15" weight="-0.14889604925287056"/>
				<Con from="input/16" weight="0.1091743924749937"/>
				<Con from="input/17" weight="0.17123877447314925"/>
				<Con from="input/18" weight="0.24389163229293837"/>
				<Con from="input/19" weight="0.15548190663438"/>
				<Con from="input/20" weight="-0.021261510151266153"/>
				<Con from="input/21" weight="0.0855079101035494"/>
				<Con from="input/22" weight="-0.039226803106328964"/>
				<Con from="input/23" weight="0.08621383048937999"/>
			</Neuron>
			<Neuron id="1/56" bias="-0.17064787678047882">
				<Con from="input/1" weight="0.1837180032882809"/>
				<Con from="input/2" weight="0.30593304244353287"/>
				<Con from="input/3" weight="-0.19905759689312194"/>
				<Con from="input/4" weight="-0.21746246038368353"/>
				<Con from="input/5" weight="-0.20786406398912657"/>
				<Con from="input/6" weight="-0.04291234189053917"/>
				<Con from="input/7" weight="0.1644978492189039"/>
				<Con from="input/8" weight="0.14316352893370235"/>
				<Con from="input/9" weight="0.016925210513749653"/>
				<Con from="input/10" weight="0.014779536982983295"/>
				<Con from="input/11" weight="0.015994775756827805"/>
				<Con from="input/12" weight="0.21412046855378575"/>
				<Con from="input/13" weight="-0.05868114343343855"/>
				<Con from="input/14" weight="0.13048926107536093"/>
				<Con from="input/15" weight="0.09357986241930966"/>
				<Con from="input/16" weight="0.0857852382203424"/>
				<Con from="input/17" weight="0.043836076405105555"/>
				<Con from="input/18" weight="0.16639544242194446"/>
				<Con from="input/19" weight="0.13696507522251244"/>
				<Con from="input/20" weight="0.042796142955790005"/>
				<Con from="input/21" weight="-0.04508792882212277"/>
				<Con from="input/22" weight="0.1362857674298849"/>
				<Con from="input/23" weight="0.19544103759151094"/>
			</Neuron>
			<Neuron id="1/57" bias="-0.019523385077504035">
				<Con from="input/1" weight="1.3140017660690943E-11"/>
				<Con from="input/2" weight="5.7667213513445294E-12"/>
				<Con from="input/3" weight="7.453147442688612E-4"/>
				<Con from="input/4" weight="-3.613003176965792E-9"/>
				<Con from="input/5" weight="-3.388787032654841E-4"/>
				<Con from="input/6" weight="4.8210444655391935E-11"/>
				<Con from="input/7" weight="0.017405052060858038"/>
				<Con from="input/8" weight="-2.504930646654863E-4"/>
				<Con from="input/9" weight="-0.010897140124857185"/>
				<Con from="input/10" weight="-0.0034620294970886915"/>
				<Con from="input/11" weight="0.0049100098724322175"/>
				<Con from="input/12" weight="6.204313598949958E-11"/>
				<Con from="input/13" weight="-0.01833809240447076"/>
				<Con from="input/14" weight="-0.0017882872501296283"/>
				<Con from="input/15" weight="5.83403864535658E-5"/>
				<Con from="input/16" weight="0.00590128906984135"/>
				<Con from="input/17" weight="-2.0512158647521522E-8"/>
				<Con from="input/18" weight="-3.7450994025973734E-4"/>
				<Con from="input/19" weight="-0.009813793731345668"/>
				<Con from="input/20" weight="-0.012955851429353364"/>
				<Con from="input/21" weight="0.003102831455032746"/>
				<Con from="input/22" weight="-8.187974796351865E-6"/>
				<Con from="input/23" weight="-0.016486555321309913"/>
			</Neuron>
			<Neuron id="1/58" bias="0.08705431996919218">
				<Con from="input/1" weight="-0.043003571212692"/>
				<Con from="input/2" weight="-0.0631710196319085"/>
				<Con from="input/3" weight="-0.0031525019413380195"/>
				<Con from="input/4" weight="0.09607973286094573"/>
				<Con from="input/5" weight="0.16256042649835747"/>
				<Con from="input/6" weight="0.26960409156522736"/>
				<Con from="input/7" weight="0.07487310883575068"/>
				<Con from="input/8" weight="0.11695565655362972"/>
				<Con from="input/9" weight="-0.16584518331686368"/>
				<Con from="input/10" weight="0.19284325939392372"/>
				<Con from="input/11" weight="0.22672218137047812"/>
				<Con from="input/12" weight="0.13448965450881972"/>
				<Con from="input/13" weight="0.013254665401649159"/>
				<Con from="input/14" weight="-0.13265419804262865"/>
				<Con from="input/15" weight="0.18773910982436462"/>
				<Con from="input/16" weight="-0.01441882667367516"/>
				<Con from="input/17" weight="0.1486698543148139"/>
				<Con from="input/18" weight="0.02965194077745569"/>
				<Con from="input/19" weight="-0.0610371230111488"/>
				<Con from="input/20" weight="0.09392866472751751"/>
				<Con from="input/21" weight="-0.1449190382429687"/>
				<Con from="input/22" weight="-0.33868499788857065"/>
				<Con from="input/23" weight="-0.1790146797396521"/>
			</Neuron>
			<Neuron id="1/59" bias="0.0907032414897876">
				<Con from="input/1" weight="0.3066483516349192"/>
				<Con from="input/2" weight="0.3488672944364397"/>
				<Con from="input/3" weight="-0.048944475281518886"/>
				<Con from="input/4" weight="-0.06846815577250469"/>
				<Con from="input/5" weight="-0.2128172303747023"/>
				<Con from="input/6" weight="-0.24273736700860168"/>
				<Con from="input/7" weight="-0.0018455177486685647"/>
				<Con from="input/8" weight="-0.06453207252770143"/>
				<Con from="input/9" weight="-0.14754620265959312"/>
				<Con from="input/10" weight="0.00820398220192227"/>
				<Con from="input/11" weight="-0.14594833973612512"/>
				<Con from="input/12" weight="0.2571423302023742"/>
				<Con from="input/13" weight="0.057233014628520935"/>
				<Con from="input/14" weight="0.2552568799121737"/>
				<Con from="input/15" weight="-0.011269559992220256"/>
				<Con from="input/16" weight="0.13726845192589202"/>
				<Con from="input/17" weight="0.13550188480646191"/>
				<Con from="input/18" weight="-0.02325120054488391"/>
				<Con from="input/19" weight="-0.06516917247388204"/>
				<Con from="input/20" weight="0.0827318481329131"/>
				<Con from="input/21" weight="-0.24833704273926807"/>
				<Con from="input/22" weight="0.22058382632053955"/>
				<Con from="input/23" weight="0.09072360409664833"/>
			</Neuron>
			<Neuron id="1/60" bias="0.016760266345265062">
				<Con from="input/1" weight="0.3637131591314033"/>
				<Con from="input/2" weight="-0.004237324884617966"/>
				<Con from="input/3" weight="-0.19682731621717267"/>
				<Con from="input/4" weight="-0.35765355774186874"/>
				<Con from="input/5" weight="-0.3064419456061351"/>
				<Con from="input/6" weight="-0.3268303952563593"/>
				<Con from="input/7" weight="-0.1662337572793074"/>
				<Con from="input/8" weight="0.12647738986659415"/>
				<Con from="input/9" weight="0.27557764668080426"/>
				<Con from="input/10" weight="0.30783274268981453"/>
				<Con from="input/11" weight="0.11285683022994528"/>
				<Con from="input/12" weight="-0.029025116900735733"/>
				<Con from="input/13" weight="-0.002083444335580585"/>
				<Con from="input/14" weight="0.31114582438964056"/>
				<Con from="input/15" weight="0.10265608878398398"/>
				<Con from="input/16" weight="-0.016051504163426402"/>
				<Con from="input/17" weight="-0.06042330691379027"/>
				<Con from="input/18" weight="-0.060887050692984154"/>
				<Con from="input/19" weight="0.03880825047329642"/>
				<Con from="input/20" weight="0.02743948427441646"/>
				<Con from="input/21" weight="0.029343200460898274"/>
				<Con from="input/22" weight="0.19666162664074707"/>
				<Con from="input/23" weight="0.24677932051789583"/>
			</Neuron>
			<Neuron id="1/61" bias="0.17955204441259107">
				<Con from="input/1" weight="0.28303974292276823"/>
				<Con from="input/2" weight="0.2590313839374878"/>
				<Con from="input/3" weight="0.011354854006398121"/>
				<Con from="input/4" weight="-0.1539637511401223"/>
				<Con from="input/5" weight="0.05144591122114224"/>
				<Con from="input/6" weight="0.017281963341780945"/>
				<Con from="input/7" weight="-0.07426811552791568"/>
				<Con from="input/8" weight="-0.0919145854624638"/>
				<Con from="input/9" weight="0.07071751856250867"/>
				<Con from="input/10" weight="0.19561543136746"/>
				<Con from="input/11" weight="0.1621056376466435"/>
				<Con from="input/12" weight="-0.16492628243735966"/>
				<Con from="input/13" weight="-0.17302306335346598"/>
				<Con from="input/14" weight="0.02774052847098432"/>
				<Con from="input/15" weight="0.04246810282935152"/>
				<Con from="input/16" weight="0.16468372515744675"/>
				<Con from="input/17" weight="-0.18135345129941588"/>
				<Con from="input/18" weight="0.16371601389192475"/>
				<Con from="input/19" weight="0.17258876415907093"/>
				<Con from="input/20" weight="0.18069139000707488"/>
				<Con from="input/21" weight="-0.011651536220791115"/>
				<Con from="input/22" weight="-0.027049423570890803"/>
				<Con from="input/23" weight="0.05643384661292972"/>
			</Neuron>
			<Neuron id="1/62" bias="-0.13231298889672188">
				<Con from="input/1" weight="-0.012371466927608071"/>
				<Con from="input/2" weight="0.32801834903124844"/>
				<Con from="input/3" weight="0.07577935481229897"/>
				<Con from="input/4" weight="-0.21122591959651738"/>
				<Con from="input/5" weight="-0.18811629681782818"/>
				<Con from="input/6" weight="-0.007685245516232741"/>
				<Con from="input/7" weight="0.03024281487672878"/>
				<Con from="input/8" weight="-0.19142724600940328"/>
				<Con from="input/9" weight="-0.12672181363484608"/>
				<Con from="input/10" weight="0.17176309318776187"/>
				<Con from="input/11" weight="0.014993086600117281"/>
				<Con from="input/12" weight="0.16948672268785123"/>
				<Con from="input/13" weight="-0.2747569693640919"/>
				<Con from="input/14" weight="-0.1037789484323036"/>
				<Con from="input/15" weight="0.09343601009494984"/>
				<Con from="input/16" weight="-0.15314692727546436"/>
				<Con from="input/17" weight="0.17915547059523187"/>
				<Con from="input/18" weight="0.10513476836542669"/>
				<Con from="input/19" weight="-0.02999519825130658"/>
				<Con from="input/20" weight="0.09316838295691886"/>
				<Con from="input/21" weight="0.2951041116971315"/>
				<Con from="input/22" weight="0.21752378941394093"/>
				<Con from="input/23" weight="0.2382149882731666"/>
			</Neuron>
			<Neuron id="1/63" bias="-0.06143090035580348">
				<Con from="input/1" weight="-1.1034412715807748E-9"/>
				<Con from="input/2" weight="-6.946126143725172E-4"/>
				<Con from="input/3" weight="2.0301628045482476E-4"/>
				<Con from="input/4" weight="-3.0303710726239957E-4"/>
				<Con from="input/5" weight="-2.2432384536094597E-4"/>
				<Con from="input/6" weight="-0.0013450683724676772"/>
				<Con from="input/7" weight="-0.002475915577390045"/>
				<Con from="input/8" weight="-2.9541955358274593E-6"/>
				<Con from="input/9" weight="-4.564633162729285E-11"/>
				<Con from="input/10" weight="1.890281665954442E-4"/>
				<Con from="input/11" weight="6.035334216092661E-4"/>
				<Con from="input/12" weight="5.85082253356166E-13"/>
				<Con from="input/13" weight="1.114934656426921E-9"/>
				<Con from="input/14" weight="1.2156218677410493E-10"/>
				<Con from="input/15" weight="-0.0105528475325557"/>
				<Con from="input/16" weight="3.9058037998931E-4"/>
				<Con from="input/17" weight="-0.002565653307262593"/>
				<Con from="input/18" weight="-0.026862348445823556"/>
				<Con from="input/19" weight="-4.411758792376731E-11"/>
				<Con from="input/20" weight="2.499471156745474E-12"/>
				<Con from="input/21" weight="-6.929757404981858E-12"/>
				<Con from="input/22" weight="-0.013304036644754878"/>
				<Con from="input/23" weight="0.01762400975520387"/>
			</Neuron>
			<Neuron id="1/64" bias="0.03038941990756271">
				<Con from="input/1" weight="0.03229956716162487"/>
				<Con from="input/2" weight="-0.1366543977936144"/>
				<Con from="input/3" weight="-0.03846131644373883"/>
				<Con from="input/4" weight="-2.375252891935836E-9"/>
				<Con from="input/5" weight="-0.18240518436115855"/>
				<Con from="input/6" weight="0.025018361727691167"/>
				<Con from="input/7" weight="0.07172223969172482"/>
				<Con from="input/8" weight="0.008145296967659671"/>
				<Con from="input/9" weight="-0.12100182577037522"/>
				<Con from="input/10" weight="0.09426558273920865"/>
				<Con from="input/11" weight="0.017041965453145628"/>
				<Con from="input/12" weight="-0.05812402586346124"/>
				<Con from="input/13" weight="-0.048267674256390634"/>
				<Con from="input/14" weight="0.17914308238049503"/>
				<Con from="input/15" weight="-0.07143240363672053"/>
				<Con from="input/16" weight="0.0032460804832493"/>
				<Con from="input/17" weight="0.043755803580883455"/>
				<Con from="input/18" weight="0.05100269162007772"/>
				<Con from="input/19" weight="-0.0731125321401061"/>
				<Con from="input/20" weight="-0.19453739173075607"/>
				<Con from="input/21" weight="-0.21618021645242347"/>
				<Con from="input/22" weight="-0.18925811967945694"/>
				<Con from="input/23" weight="-0.09427807407362514"/>
			</Neuron>
			<Neuron id="1/65" bias="-0.08896470373774304">
				<Con from="input/1" weight="0.046201423445597266"/>
				<Con from="input/2" weight="-0.1303066637175634"/>
				<Con from="input/3" weight="-0.07984199390318926"/>
				<Con from="input/4" weight="0.030191990676396815"/>
				<Con from="input/5" weight="0.1606168386832404"/>
				<Con from="input/6" weight="0.0029193005671911366"/>
				<Con from="input/7" weight="-0.14037095086959475"/>
				<Con from="input/8" weight="0.05047117511228383"/>
				<Con from="input/9" weight="-0.17059723486697526"/>
				<Con from="input/10" weight="0.028827632951629625"/>
				<Con from="input/11" weight="0.1565643237449559"/>
				<Con from="input/12" weight="-0.18266903170482285"/>
				<Con from="input/13" weight="0.20136990902482427"/>
				<Con from="input/14" weight="0.11084510850486366"/>
				<Con from="input/15" weight="-0.18751564046141841"/>
				<Con from="input/16" weight="0.22806217299585876"/>
				<Con from="input/17" weight="0.12385342806748685"/>
				<Con from="input/18" weight="0.17325969009883951"/>
				<Con from="input/19" weight="-0.012260013745846439"/>
				<Con from="input/20" weight="0.2763575623745365"/>
				<Con from="input/21" weight="0.2443674049781295"/>
				<Con from="input/22" weight="0.08100352505452693"/>
				<Con from="input/23" weight="3.2458636572459956E-4"/>
			</Neuron>
			<Neuron id="1/66" bias="0.21821298542802642">
				<Con from="input/1" weight="-0.18612380169359144"/>
				<Con from="input/2" weight="-0.16663957050527503"/>
				<Con from="input/3" weight="-0.195393874066144"/>
				<Con from="input/4" weight="-0.07312277268806062"/>
				<Con from="input/5" weight="0.01657206750962852"/>
				<Con from="input/6" weight="0.06742404722283368"/>
				<Con from="input/7" weight="0.2249230520507132"/>
				<Con from="input/8" weight="-0.0782784879484294"/>
				<Con from="input/9" weight="0.012540238723124555"/>
				<Con from="input/10" weight="0.14111437815782774"/>
				<Con from="input/11" weight="0.06975557922942115"/>
				<Con from="input/12" weight="0.015038208975168645"/>
				<Con from="input/13" weight="0.14995104074797547"/>
				<Con from="input/14" weight="-0.21098528184729068"/>
				<Con from="input/15" weight="0.021177540770197997"/>
				<Con from="input/16" weight="-0.16807853243488938"/>
				<Con from="input/17" weight="0.2466841805274647"/>
				<Con from="input/18" weight="0.18789080646365722"/>
				<Con from="input/19" weight="0.12760947171380674"/>
				<Con from="input/20" weight="0.16787573117061852"/>
				<Con from="input/21" weight="-0.08002006884271887"/>
				<Con from="input/22" weight="0.018724973664121073"/>
				<Con from="input/23" weight="-0.19700630373807274"/>
			</Neuron>
			<Neuron id="1/67" bias="0.15845785200067236">
				<Con from="input/1" weight="0.011734708182385737"/>
				<Con from="input/2" weight="0.04586846477640726"/>
				<Con from="input/3" weight="0.12917446560859558"/>
				<Con from="input/4" weight="-0.008060484922338698"/>
				<Con from="input/5" weight="-0.09428797186804898"/>
				<Con from="input/6" weight="-0.1605585126988581"/>
				<Con from="input/7" weight="-0.09122534878296772"/>
				<Con from="input/8" weight="-0.11555668666575059"/>
				<Con from="input/9" weight="0.12213019300559251"/>
				<Con from="input/10" weight="0.12850119121006542"/>
				<Con from="input/11" weight="0.0638647119188543"/>
				<Con from="input/12" weight="0.0768630415988504"/>
				<Con from="input/13" weight="-0.20395161959862732"/>
				<Con from="input/14" weight="-0.032511146175703005"/>
				<Con from="input/15" weight="-0.20126436216436472"/>
				<Con from="input/16" weight="0.10485972616695494"/>
				<Con from="input/17" weight="0.03598765164586422"/>
				<Con from="input/18" weight="-0.16823515835811695"/>
				<Con from="input/19" weight="-0.014432722776016621"/>
				<Con from="input/20" weight="-0.18820070880530906"/>
				<Con from="input/21" weight="-0.21373297293300844"/>
				<Con from="input/22" weight="-0.1223801540645935"/>
				<Con from="input/23" weight="-0.013681657479150748"/>
			</Neuron>
			<Neuron id="1/68" bias="-0.0962041396768676">
				<Con from="input/1" weight="-0.07490424973674216"/>
				<Con from="input/2" weight="-0.20931077112947066"/>
				<Con from="input/3" weight="0.26847303870606837"/>
				<Con from="input/4" weight="0.03128432869772508"/>
				<Con from="input/5" weight="-0.019385289134065523"/>
				<Con from="input/6" weight="-0.021921717439429205"/>
				<Con from="input/7" weight="-0.08100223933558492"/>
				<Con from="input/8" weight="0.11542416303994847"/>
				<Con from="input/9" weight="0.1710697061029394"/>
				<Con from="input/10" weight="0.0011020059210466104"/>
				<Con from="input/11" weight="0.1301661227860951"/>
				<Con from="input/12" weight="0.18374114821217902"/>
				<Con from="input/13" weight="0.043129598840320846"/>
				<Con from="input/14" weight="-0.13067062894973777"/>
				<Con from="input/15" weight="0.07987480666312954"/>
				<Con from="input/16" weight="0.1820881984524604"/>
				<Con from="input/17" weight="0.13100586538216138"/>
				<Con from="input/18" weight="0.24737778842880803"/>
				<Con from="input/19" weight="-0.12900703677674508"/>
				<Con from="input/20" weight="-0.07405806555224227"/>
				<Con from="input/21" weight="-0.020825339763507828"/>
				<Con from="input/22" weight="0.02791316308537603"/>
				<Con from="input/23" weight="0.1040078205613272"/>
			</Neuron>
			<Neuron id="1/69" bias="0.247863771567117">
				<Con from="input/1" weight="0.2904820001442142"/>
				<Con from="input/2" weight="0.2995447175853713"/>
				<Con from="input/3" weight="-0.2453267761481667"/>
				<Con from="input/4" weight="-0.10153794992048454"/>
				<Con from="input/5" weight="-0.2029633804165452"/>
				<Con from="input/6" weight="-0.2871831830335802"/>
				<Con from="input/7" weight="-0.04987832497823863"/>
				<Con from="input/8" weight="0.3421429951961762"/>
				<Con from="input/9" weight="0.07301826800424095"/>
				<Con from="input/10" weight="0.1719880035604789"/>
				<Con from="input/11" weight="0.31957298574643717"/>
				<Con from="input/12" weight="0.2639178224823324"/>
				<Con from="input/13" weight="0.15403382131081325"/>
				<Con from="input/14" weight="0.06112057800383113"/>
				<Con from="input/15" weight="0.014204471799152308"/>
				<Con from="input/16" weight="0.24503098424551242"/>
				<Con from="input/17" weight="-0.027804616370664864"/>
				<Con from="input/18" weight="-0.01294187568702445"/>
